term_str,0,1,2,3,4,5,6,7,8,9,10,11,12,13,14,15,16,17,18,19,20,21,22,23,24,25,26,27,28,29,30,31,32,33,34,35,36,37,38,39,40,41,42,43,44,45,46,47,48,49,50,51,52,53,54,55,56,57,58,59,60,61,62,63,64,65,66,67,68,69,70,71,72,73,74,75,76,77,78,79,80,81,82,83,84,85,86,87,88,89,90,91,92,93,94,95,96,97,98,99
the,-0.12624721,-0.084265895,0.027006617,0.07174657,-0.18169059,0.0118484,-0.09052529,0.08309635,-0.06521171,0.011590681,0.08112106,-0.0013934314,-0.05766602,-0.025188062,-0.03170209,0.06817438,0.062724285,0.06384211,-0.09411797,-0.053480897,0.00088496413,-0.03175467,0.14269282,-0.099296406,-0.032603707,-0.044005066,-0.072392434,0.10152929,-0.04490222,-0.052234653,-0.026505278,-0.11645587,-0.00599281,-0.15364997,0.062490698,-0.0053735026,0.1166759,-0.122981034,0.017126193,-0.037040085,-0.021038713,-0.018075082,-0.07172614,-0.05360853,-0.071594596,-0.06254762,-0.17745124,0.084787644,-0.044537473,0.106505476,-0.18977028,0.053064365,0.07985304,0.10412961,0.055418488,-0.09945015,0.2131527,-0.0043563037,-0.17250627,0.3034335,0.13451256,0.041594185,0.059133634,-0.07259986,-0.020940859,-0.013792823,0.15651344,0.001689884,0.0432569,0.09814745,0.042746607,0.1498171,-0.17173058,-0.21971938,0.07956104,-0.039599214,-0.051440768,0.111800745,-0.013944209,-0.31992328,-0.019076768,-0.067785576,0.090875976,0.06220339,-0.19453895,0.05298659,-0.032354828,0.017747086,0.008408331,0.03747391,-0.14742069,-0.11108478,-0.10410944,0.09132709,-0.0470242,-0.020278672,-0.1422711,-0.11298017,0.08529265,0.0067262
of,0.03912552,0.017461829,0.04078229,0.01631549,0.07370484,-0.06886145,-0.006519066,-0.023516918,-0.045813583,-0.11208104,-0.1469677,0.014600825,-0.052082807,0.09520306,0.14857234,0.16217496,0.14811425,0.122528225,-0.11284014,-0.072122335,-0.020507928,-0.08301446,0.028507555,-0.25922963,0.0031983184,-0.10479344,-0.18131827,0.011986941,-0.08375289,0.2011243,0.11273281,-0.12651214,-0.06789829,-0.17952915,-0.013053009,-0.109498635,-0.16583295,0.114943996,0.09625218,0.032050747,0.038051084,-0.06712284,-0.11076589,0.11898817,0.0542723,0.06587187,0.061951946,-0.0037598538,0.005260748,0.020227768,-0.039842345,-0.045619432,0.2567032,0.16143301,-0.02987406,0.12563188,0.13472629,0.15753622,-0.026730202,0.11516161,0.0008997308,0.04666118,-0.17443596,0.07772822,-0.0019612284,0.08027209,0.08152296,-0.10990022,0.07321272,0.011953606,-0.05577549,-0.12247304,0.022527438,-0.11404234,0.048537795,-0.11190535,-0.15238813,-0.0213051,0.10004301,-0.12815268,-0.11133447,0.12130866,0.09109419,0.20952146,-0.10112898,0.07217025,0.053305026,-0.010833002,0.055700205,-0.103333905,0.014242429,-2.2934122e-05,-0.06502695,-0.11520736,-0.107902735,0.13052748,-0.008877726,-0.02213721,0.021257289,0.020276345
and,-0.058646515,0.042488497,-0.035851482,-0.028747614,0.21016383,-0.14300057,-0.16920406,0.16020809,0.03202173,-0.06610781,-0.1484254,-0.076861314,0.086622275,0.02775984,0.16826245,-0.10999359,-0.03615409,0.033222713,-0.05207848,-0.028498204,-0.13703349,-0.088747844,-0.06377194,-0.001013528,0.04050918,-0.00408594,-0.054367185,0.12595417,0.021675019,0.10324154,0.13934898,-0.17606752,-0.21150707,0.021179939,-0.08568396,0.110632196,-0.13820788,0.059380528,0.08549938,-0.024310216,-0.17892487,0.011512622,-0.16804284,-0.006453368,0.07613546,-0.016238244,-0.13808124,-0.18572727,-0.06653504,-0.07972728,-0.03913766,-0.13802701,-0.09160775,-0.061397597,-0.017002909,-0.0816032,0.09640372,-0.03851242,-0.09377102,0.037082184,-0.13014556,-0.14417402,0.11316607,0.012993701,0.058317427,0.04189971,0.28914085,-0.019259352,-0.057704534,-0.0076827933,-0.021313597,0.06491513,0.009308091,-0.060253367,0.03564992,0.1897889,-0.0488725,-0.109659895,-0.06491281,-0.15254815,-0.068271674,-0.05752596,0.13626459,0.05046598,-0.10747673,-0.07450461,-0.059017487,-0.005045825,0.10134213,0.12048004,-0.11185824,-0.007702519,-0.021651663,0.021902585,0.060744092,0.062308386,-0.016874364,-0.07140408,0.20613742,-0.10965115
to,-0.108300425,0.009443304,-0.047362898,0.06019222,0.13922971,-0.053709287,-0.08362453,0.15000317,0.19009912,-0.14258431,-0.0053361347,0.08680033,0.029907934,-0.22001597,0.13924855,-0.051120803,0.07188562,-0.21320547,-0.072141156,0.30498633,-0.18462285,-0.053683132,0.122691736,0.13903518,-0.14131783,0.08106749,-0.0066080815,-0.0023338536,0.14740068,-0.033818945,0.005509381,-0.011180006,-0.047112636,-0.08989999,0.07258706,-0.006315216,-0.002833768,-0.10176143,-0.09068303,0.07769791,-0.044760577,0.09606051,0.1424174,-0.042364296,0.14930716,-0.028399916,-0.060005937,-0.19400044,0.035101507,-0.06781806,0.0002979801,-0.033938855,-0.08098415,-0.011100166,-0.10264817,-0.030348,0.080474816,0.017102601,0.2049679,-0.13497739,-0.048378386,0.07106895,0.19287345,0.08823179,-0.019615605,-0.1196186,0.025787717,0.11308309,-0.077355765,-0.049658097,0.08040103,-0.078260474,0.071881495,0.15740144,-0.006109182,-0.10752366,-0.12427816,-0.035078898,-0.1373151,0.012386794,-0.08934518,0.07573324,0.14011775,-0.066989966,-0.022356367,-0.10156342,0.06079891,0.051995113,-0.03825407,-0.011019326,-0.0077009,0.0017923175,-0.10265587,0.0034451103,0.08419581,-0.010490891,0.06758949,-0.032554764,-0.18525617,-0.04707693
that,-0.19045655,0.009248848,-0.10631961,-0.101678625,0.06579503,0.061944503,-0.06387408,0.038054336,0.041062113,-0.04962275,0.048055567,-0.10887007,-0.1950246,-0.17759395,0.0065066335,-0.14648332,-0.009755005,-0.17300476,0.012786176,-0.14383757,-0.18232405,-0.080332026,0.2887624,-0.063944004,-0.119691886,0.014183124,-0.041587424,-0.08030643,-0.048467543,-0.041829072,-0.02122007,-0.01628068,0.1874828,0.0823107,0.03710818,-0.006540863,-0.077132985,0.06780016,0.06328291,0.06413783,-0.007059515,-0.014530556,0.093884654,-0.04584352,0.057354696,-0.1301719,0.11340339,0.07443273,-0.073840536,0.07730059,0.10342104,0.039006438,0.053497076,-0.019951034,-0.085823156,-0.11217757,-0.062385004,-0.021639308,0.049134675,-0.045692068,0.08672779,-0.038399715,0.12834369,0.06978831,-0.06580033,-0.032532718,0.029299235,0.07798121,-0.28193185,0.07918277,0.018058743,0.021937039,0.046000857,0.05360723,-0.02356292,-0.071739025,-0.15566987,-0.0075708977,-0.04424067,-0.17078517,-0.22373976,0.0026161792,-0.12134781,0.0826882,-0.02877769,-0.029873345,0.09867771,-0.0294731,-0.18916161,-0.18003635,-0.062104985,-0.1492389,-0.07989466,0.12841482,0.03256824,-0.0704935,0.081156015,-0.08352315,-0.17157508,0.017187754
in,-0.21995598,-0.003771869,-0.005835493,-0.2271834,0.13077241,-0.016146637,-0.10905518,-0.060312845,-0.1126798,0.0074274703,-0.088381186,0.085534066,-0.08510869,-0.0072139036,-0.02696196,-0.0044466555,-0.01071305,-0.0011058046,-0.11277704,0.15423316,-0.15751356,0.0054191714,0.08123511,-0.033488013,0.05990342,-0.15567675,-0.12552626,-0.03656493,-0.0878035,0.045235224,0.16247527,-0.11973561,-0.086285196,-0.25161558,0.003295108,0.12626317,-0.06256125,0.15054408,0.07170137,0.03708876,0.036159996,-0.21439122,-0.19382901,0.074751504,0.13041411,0.05194197,0.013464852,0.006184546,0.053847563,0.042869177,0.05925678,-0.09179927,0.12734775,0.17012995,-0.07353286,0.04778404,0.2293121,0.0609201,-0.05194414,-0.022495516,0.07787689,0.050099462,0.0069314507,-0.07187421,-0.003331151,0.03360836,0.089416675,0.027422868,-0.03929197,0.026643703,0.091565736,-0.014474566,0.04918507,0.094331585,0.17413095,-0.012937452,-0.16629589,0.114132635,0.027803488,-0.12924568,0.046114758,-0.18439244,0.061212532,0.053091913,-0.17708766,0.04937373,-0.026961057,0.06820695,0.0747529,-0.013621214,0.07757179,-0.051102392,0.0088900095,0.09847947,-0.039583888,0.18374556,0.043177687,-0.079911485,0.0061729667,-0.15235974
is,0.09253283,-0.11300064,0.10651905,0.012487908,0.03627071,-0.08131536,0.0995363,0.062263973,0.0039601545,-0.030286139,0.023243029,-0.03198025,0.044276267,0.15224557,-0.030078223,0.04099719,0.1529568,-0.01820108,0.09407467,-0.19016485,0.044486396,-0.01788015,0.11975718,-0.017503217,-0.03628834,0.083579704,-0.08794425,-0.023774873,-0.030695671,-0.08753744,0.08600417,0.29626948,-0.10866117,-0.12400608,-0.072163835,-0.019644748,-0.1520013,-0.16289681,-0.09876387,-0.051453635,0.2641395,-0.14076999,0.07943239,-0.08597829,0.03126038,0.16261156,-0.14599028,-0.11910061,-8.9456575e-05,-0.122184545,-0.12987131,-0.1416798,-0.068277195,-0.021726562,-0.057393085,-0.19854884,-0.04793927,-0.19420119,-0.0956369,0.017411387,0.07982019,-0.054038584,0.05132577,-0.0035556068,0.021865679,-0.0007291733,-0.10177192,0.053373907,-0.092697226,-0.11343372,0.07997835,0.087919176,0.051681805,0.2116077,0.04603113,-0.09747983,0.06352629,0.09603524,0.03375362,0.057274982,0.15636255,0.020608189,-0.22020835,0.088654235,-0.14781626,-0.047699504,0.12786606,-0.11243472,0.030147407,0.0050147874,0.09486711,0.013999155,0.06587481,-0.044571746,-0.016565368,0.06646282,0.051423173,0.017491436,0.021166109,-0.046016645
a,0.083218105,-0.18133572,0.14179422,0.21228062,-0.06393439,0.010535905,-0.14625838,0.045721106,-0.07212202,-0.028022882,0.067349,0.14621508,-0.037425593,0.07088439,0.010654406,-0.0010366867,0.045364328,-0.117932536,-0.11212151,-0.1691997,0.00095249736,0.05457596,0.17699736,-0.22086968,0.0076793595,0.094560504,0.023700394,0.1401136,-0.13775758,0.111571915,-0.18829782,-0.0027853977,0.11687246,0.06738159,0.10266217,-0.012802534,-0.08946417,-0.08316024,-0.025698293,0.063614085,0.010367409,-0.14560126,-0.0065523516,-0.0064897425,0.16579829,-0.17941715,-0.09421824,-0.07990819,0.12251269,-0.049740147,-0.13227357,0.12672235,0.07830072,-0.030299865,-0.037704967,-0.055633225,-0.11820598,-0.041325755,0.09973975,0.044935767,0.1657441,-0.08631879,-0.061678585,0.099121764,-0.092454925,-0.028921232,-0.07917035,0.013883811,-0.18263343,0.05094981,0.039478447,0.16630146,-0.017538842,0.008022776,-0.06524752,0.055194043,0.07457347,-0.16393493,2.0297151e-05,-0.053160463,0.002665926,-0.13745591,-0.13043006,0.08454302,0.027828386,0.105963334,-0.12476733,-0.12860523,0.04288818,0.0082709715,-0.062637135,0.03618818,-0.08620329,-0.07076995,-0.1840129,-0.057963304,-0.09255059,-0.15502137,0.04736982,-0.07832478
it,0.0023870945,0.079677075,0.08688926,0.24948585,-0.0080859,0.11651285,0.102281846,0.11154825,0.018406793,0.11256541,-0.009535917,-0.06645343,0.107078016,-0.06940162,0.023335634,-0.1028324,-0.15037179,-0.060813382,0.03848396,-0.028915515,0.05834566,0.08692404,0.21421537,-0.097987615,0.09510762,0.13921939,-0.00056847266,-0.15370502,0.09309822,-0.07730851,-0.030036347,0.07862436,0.30393696,0.08271906,0.10886944,0.10716417,0.06014345,-0.054837156,3.4182674e-05,-0.1294484,-0.089533515,-0.026639286,0.19365402,-0.09220436,-0.053726953,-0.15100878,-0.038856238,-0.10298721,-0.0134227965,-0.115082905,-0.0042715417,0.08862757,-0.0947554,-0.14992867,-0.054051276,-0.07695428,-0.17598633,0.07549219,-0.02394324,-0.060452852,-0.01686785,0.0718938,0.074546754,-0.014908669,-0.17145981,-0.112207346,-0.015101401,0.21084821,-0.17551851,0.10991252,-0.08826775,0.09648699,0.031150458,0.101636246,0.019753167,-0.06627158,0.13537565,-0.013260462,-0.101942606,0.19776438,-0.1069731,-0.1255033,0.012376366,0.07576831,0.02149814,0.044376466,0.03280123,-0.029011345,-0.04684917,0.055465765,0.021387238,-0.12367527,-0.0028977771,-0.0558902,0.13654342,-0.0020302744,-0.0033290335,0.08041813,-0.049234726,0.03787593
be,0.042717982,-0.16639705,-0.11440974,0.15481792,-0.0032356605,-0.13230309,-0.08455946,0.0448288,-0.08985171,0.0440682,0.042671673,-0.121215925,-0.012882988,0.033406664,-0.03728606,-0.03219007,-0.06742494,-0.2262637,0.23395891,-0.19673069,0.0428348,0.102252774,0.022560488,0.022081034,0.2377384,-0.058472898,-0.019922428,0.012353494,-0.050320793,0.017028235,0.115784965,0.081559084,0.1307967,0.13816337,-0.0907774,0.1453534,-0.070212916,0.045057613,-0.017613703,0.049715944,0.101370424,0.042045824,0.0391812,0.11326582,-0.10229714,0.10280794,-0.024616256,0.018097777,-0.036000546,0.09994262,0.09237943,-0.01513748,0.03830356,0.00071312033,0.033311315,-0.07383637,-0.25605863,-0.062446747,-0.09834908,-0.013465799,-0.13589042,0.22683561,0.10711156,-0.05950816,-0.16605088,0.018467464,-0.15422945,-0.06578534,-0.08532017,-0.022532504,0.05710482,0.13776265,0.066180795,-0.008970328,0.08326769,-0.028238023,0.13937822,0.011803246,0.14446783,0.14233688,-0.067781314,-0.086684756,-0.15799208,0.1293083,0.030228455,-0.002376209,-0.0956665,-0.08481652,0.01996883,0.122509025,-0.011546323,0.15737267,-0.086710535,0.018280013,0.09560418,-0.050858017,-0.009244015,0.023763616,0.15515739,-0.0075842757
as,0.015535183,-0.08347972,0.116461,-0.13099262,0.04173805,-0.04689277,-0.10295837,-0.0004446408,-0.124007724,-0.10367695,0.15659718,-0.060625695,0.0120350635,-0.064239495,0.056234505,0.02520985,0.085241556,-0.03658147,-0.011038608,0.053154048,-0.032784462,-0.0808577,0.24830534,-0.0999428,-0.072127834,0.025948238,-0.101255745,0.015424848,0.0629603,0.07326463,-0.12207396,-0.06348243,0.18727468,0.1873145,0.13595349,0.09364822,-0.0076725585,0.13735414,0.0588002,0.027773848,-0.16145924,-0.06820325,-0.049198095,0.20795365,-0.07087965,-0.08201667,-0.02502478,0.0006690096,-0.09635748,-0.041527297,0.11432875,0.040668048,0.17403233,-0.056504145,0.0039149933,0.15069577,-0.10175685,0.12736821,0.047656175,0.007097262,-0.14524995,-0.07822605,-0.03788805,0.055152424,-0.055188224,0.09944583,-0.14828509,-0.08578065,0.16107842,0.06338101,0.0065539335,0.12682225,0.06471944,0.0998491,0.12997606,0.15561211,0.024717418,-0.17129724,-0.05487745,0.033597197,0.0056368075,0.042822655,0.117698155,0.12911813,-0.106994726,0.04750938,-0.11658451,0.029137518,0.087553896,-0.014406453,0.24038392,0.0121242935,-0.07312679,0.05474054,-0.14485212,-0.05554941,0.105747454,-0.03255173,0.0023918913,-0.22158216
or,0.27203828,-0.1285632,0.014976745,0.011689238,-0.014440959,-0.073528215,0.10506192,0.13517956,-0.103213415,0.0050973715,-0.1425969,-0.070164345,0.028418934,-0.09051089,0.029294603,0.048082396,-0.06698359,-0.23846747,-0.16830482,0.022700222,0.03183861,-0.016919212,-0.042865124,-0.18789954,0.051550075,-0.10511408,-0.11237502,0.07189885,0.07231557,0.1657807,-0.04617596,-0.05528302,0.020992208,0.0381192,0.10382956,0.1048583,-0.14657544,-0.12005829,-0.14261681,-0.14885324,-0.20238991,0.08125546,0.041530963,-0.01982654,0.085437916,-0.02054881,0.102711305,-0.17772307,-0.13563779,0.08756054,0.09139795,-0.07386369,0.0037348,-0.08428638,-0.002406234,-0.02800819,0.10610387,0.08337961,-0.04711961,0.04078202,-0.040972177,-0.020352863,-0.015806966,-0.033634387,-0.16813345,0.22049917,0.08615071,-0.02747864,-0.028509725,-0.081667796,-0.15447451,0.096171185,0.121473715,-0.002917707,-0.047215607,0.012187243,-0.022249987,-0.096697725,-0.17408301,0.12600146,-0.023776552,0.10050471,-0.09187423,0.069380336,0.04218425,0.07956265,-0.2427947,-0.109126665,-0.06120565,-0.017989378,0.021881139,0.06781996,-0.13086474,-0.04532368,0.0170426,-0.06456927,-0.008718553,-0.111169934,-0.070593566,0.03395038
which,-0.13431686,0.10626536,-0.073876046,-0.16470069,0.12587748,0.10671803,-0.123040974,0.12943117,0.11642047,-0.11491163,-0.0034261565,-0.15868723,-0.121807106,-0.10689961,0.05215313,-0.12440816,-0.08190083,0.056770533,0.051719103,-0.12050703,-0.201093,-0.026330613,0.16962211,-0.06322828,-0.041181777,-0.03053702,-0.054757714,-0.021725645,-0.034685653,0.17217086,-0.06993694,-0.22851443,0.08313885,0.067928806,-0.045379784,-0.010670805,-0.037839588,0.020870855,0.184658,0.011153479,-0.057771794,0.02609836,-0.056896765,-0.06900152,0.0050380663,-0.071981765,0.011324171,0.09661332,-0.12984276,0.08203172,0.18660088,-0.042024087,0.14946054,-0.07964471,-0.025320623,0.025300635,0.043254025,0.061425198,0.07525423,0.13978937,-0.04948102,-0.0711623,-0.006280234,-0.026611945,0.0068284306,-0.052215423,0.14489953,0.009111839,-0.16528507,0.093516,-0.034906417,-0.06760999,-0.07828893,-0.10262686,-0.14428474,-0.08171185,-0.16867733,-0.09135206,-0.1445769,-0.065478146,-0.23610212,0.13013394,-0.0075882585,0.13827752,-0.058768824,0.05808558,0.049140867,-0.12928146,0.09308974,-0.047941253,-0.051331267,-0.15937996,-0.121665284,-0.052469034,0.08566643,-0.04287989,0.02554313,-0.107390635,-0.06642161,0.098715656
by,-0.005215196,0.034062352,-0.14139006,-0.10700075,0.17481102,0.043630015,-0.17628814,-0.009117145,-0.14923483,0.017555643,0.0018796462,0.013236157,-0.011522395,-0.10507359,0.13023116,0.02340028,0.03658585,-0.23103286,-0.04024892,-0.00975139,-0.018901352,-0.0016717195,-0.08534536,-0.025605816,0.018989613,-0.19953689,-0.13105181,-0.12055443,0.06681791,-0.0236603,0.089164406,-0.026854891,-0.010250205,-0.15946762,0.11139612,-0.08788171,-0.13618366,0.08089325,-0.0076277773,-0.06523166,0.1173319,0.018624816,0.09716587,0.1023638,0.06702613,-0.0010958447,-0.046263494,0.048394375,-0.05980709,0.19388328,-0.05378532,-0.14627293,0.08855431,0.07104973,0.03387357,-0.009789606,0.20772724,0.116981976,0.02412603,0.04432801,-0.08566359,0.2516995,0.16190505,-0.096224524,-0.039229717,-0.083630286,0.09965722,0.042680077,0.14474533,-0.02572945,-0.002106248,-0.012265151,-0.11045272,0.03840243,0.11023382,-0.046333075,-0.13822444,0.16952984,-0.102228664,-0.20889096,-0.021696664,0.048355233,0.04717003,-0.02017467,-0.1326713,0.09068634,-0.024292806,-0.002233359,0.064136334,0.07926341,-0.00998051,0.025896981,-0.2924464,-0.11234333,-0.03956267,-0.036239505,0.072379455,-0.0825233,-0.10356443,-0.00025854754
not,0.107151315,0.028184215,-0.054509867,-0.11339471,0.17190063,-0.007451432,0.0028339762,-0.021263966,0.19443882,0.005683441,0.20708373,-0.053861067,-0.07344962,-0.11255792,-0.008627444,-0.08296894,0.027796771,-0.148611,0.030734656,0.07163132,0.034282565,0.033938944,0.14740145,-0.106408715,0.04579227,0.0066916887,-0.04005625,-0.083872005,0.23757827,-0.11912439,-0.0868553,-0.06666798,0.12437787,-0.08178983,0.084072314,-0.08701291,0.11702035,0.122317985,-0.005639386,0.049287964,-0.0040635862,-0.10964692,0.21017252,0.09152044,0.0055325166,-0.05924787,-0.04131606,-0.084753595,0.0044751633,-0.030138513,0.026455345,0.08140575,0.032918386,-0.060172234,0.02048909,-0.013251239,0.004834134,0.013305576,-0.020789772,-0.017573904,-0.27442256,0.13128898,0.09741235,0.19037272,-0.05677195,0.072420925,-0.13391553,0.03339801,-0.17845027,0.12766878,-0.10044113,-0.064626105,0.15328154,0.12977451,0.025579728,-0.12905718,0.075221196,-0.0067610587,-0.18389884,-0.028004162,-0.14164488,-0.016038073,0.06110979,0.029344097,0.017729372,0.06885103,-0.03254861,0.16327079,-0.10898263,-0.06570003,0.10124517,-0.0017546518,-0.041073907,0.073546074,0.062167414,0.010712698,0.045344517,0.2109293,-0.21776189,-0.02657526
for,0.04468323,-0.09657618,-0.11321406,0.033072732,0.15518822,0.0152153345,-0.11720555,0.04281622,0.008280199,-0.07300557,0.01828443,-0.1144327,-0.07138953,0.074334756,-0.017023578,0.0060791825,-0.057572246,-0.24488212,0.007938852,0.13078466,-0.07899354,-0.18080033,0.13815224,-0.09067236,-0.043363906,-0.039700974,-0.09348758,0.14462264,0.09041991,-0.0361835,0.09056181,-0.050504845,0.06771867,-0.007008094,0.1452861,-0.055953737,-0.08336148,0.08099025,-0.0016623534,0.16653591,0.104648955,-0.038546212,0.009850799,0.18064617,0.11399314,0.09408437,-0.091731355,-0.114149325,-0.041237403,-0.035035916,0.016575936,-0.077199884,0.13023697,-0.02237816,-0.035521496,0.022872718,0.08215887,0.16658969,0.10758745,-0.09728736,-0.088744156,0.049255453,0.20608398,0.058856603,-0.036194425,-0.08390324,0.011935028,0.2015393,-0.035217993,-0.05997694,0.06094838,0.120652415,0.16286232,0.19107364,0.17990965,-0.12192227,-0.029767254,-0.017586024,-0.0119008925,-0.03950441,-0.24350026,-0.037629545,0.07013365,0.053313836,-0.15684624,0.023598524,0.035339497,-0.0826421,0.049807552,0.05475915,0.057192776,0.1364483,-0.24272831,0.008820027,-0.1312743,0.10719841,0.058058944,0.018998105,0.007231046,0.018488264
but,0.10879661,-0.16823372,-0.038362302,-0.052281864,0.11947109,0.14018284,-0.052149974,0.17486748,0.09861869,0.009193223,-0.19454,-0.22694814,-0.0710581,0.05836877,-0.08887833,0.037336003,-0.1544835,-0.031563703,0.036769617,-0.050822336,0.12277401,-0.08982936,0.08162688,-0.02695683,0.0066530416,-0.02802493,0.03625678,-0.08853519,0.23467942,0.16225275,0.21060403,-0.040307797,0.00096817315,-0.027082566,0.06441539,0.018770354,-0.018162316,0.0028311545,-0.05500649,-0.03290604,0.020151708,-0.02212768,0.06133958,-0.016500497,0.047585163,0.06728319,-0.093328945,-0.10152317,0.03570565,0.048959445,0.09125027,-0.20705962,0.19284627,-0.1772586,-0.041302856,0.10502499,-0.06342874,-0.002813835,0.013360154,0.033584744,-0.112410635,0.0063938256,0.1219595,-0.0322125,-0.030467587,0.007916178,0.061766073,0.17891121,-0.008310915,0.06490028,-0.03855634,-0.082637645,0.13128069,0.10872089,-0.17841697,-0.051111575,0.096011125,-0.024629278,0.011447995,0.070726156,-0.14415364,-0.05417708,-0.1559228,-0.051798902,-0.15775958,-0.01588676,-0.096518666,-0.22789766,0.045881625,0.032811414,0.11970828,-0.002691105,-0.11982401,0.0804879,0.008785188,0.120338656,0.053780016,-0.119931094,-0.10229757,0.13651587
are,0.025944026,0.08718374,0.06395374,-0.094871655,0.10173031,-0.15875015,0.066594735,0.06724727,-0.14759853,-0.21952523,0.064355105,-0.17171946,0.045535367,0.1287663,0.17226434,-0.0052498467,0.080265015,0.044941813,0.10561477,-0.11692674,-0.018497424,-0.067620195,-0.19889212,0.09933071,0.06689789,-0.000600193,0.041318532,-0.11090252,-0.03914157,-0.08026767,0.03815971,0.053954612,-0.16720809,-0.0961956,-0.027615592,0.05324423,0.027596198,0.04725924,0.05050371,-0.08773616,0.10537124,-0.009553758,0.12213714,0.054317195,-0.046513375,0.17420901,-0.16961503,0.061951604,0.049885627,0.07995114,0.032158766,-0.041212797,0.00836402,-0.02010609,0.13382645,0.031963296,0.012740207,-0.14901821,-0.04563919,-0.010459207,-0.0517125,0.1101248,-0.100808084,-0.010544127,0.18187499,0.16877604,0.003094733,0.006181196,0.20131391,-0.09257365,0.15623792,0.00022544268,0.11984289,0.096941374,0.09399923,0.073401675,0.13097005,0.08101502,0.10154012,0.01262414,0.056607,0.12437514,-0.080969155,-0.094055004,0.10628592,0.0148897385,0.18629947,-0.0623814,0.08310135,0.008774253,0.17149505,0.21129884,-0.035144452,-0.052182283,0.09727968,0.115657374,-0.036899686,-0.12887907,0.093259364,-0.09398458
they,0.011979712,0.016450794,-0.13098659,0.21139714,0.12060774,0.021337537,-0.0619695,0.17443961,0.00034395105,-0.07077593,-0.0076320036,-0.025070896,0.09756215,0.045553993,0.15668873,-0.078857794,-0.05621813,-0.105199896,0.15994033,0.23818405,0.14313893,-0.029024523,-0.11241786,0.12925266,0.103273585,0.11238306,-0.030790282,0.10803237,0.15563892,-0.006249496,-0.0137715135,-0.031813264,-0.027184818,0.033339527,-0.0067996876,0.047586408,0.110263444,0.089321226,-0.029244395,-0.028699381,-0.19909982,0.08911053,0.17434193,0.050733447,-0.18149005,0.05104509,-0.056700993,0.04916197,0.19321394,0.05650657,0.044786368,0.013925453,-0.17769949,-0.01800052,0.02015261,0.14176491,-0.01203843,-0.004373604,-0.0047657103,-0.11068733,-0.052054048,0.24054334,0.03868919,0.0643093,-0.049152996,0.12781358,0.05843494,0.15949464,-0.03278765,0.023000903,0.11082479,-0.08310879,0.10760791,-0.03479324,0.058170605,-0.09251168,0.071303494,0.09913496,-0.10406013,0.075068,-0.088610835,-0.049235772,0.07167578,-0.10358317,0.23001906,-0.080418974,-0.07478715,0.16190642,0.0019889253,-0.07363222,0.19063161,0.06261615,0.03569297,0.11232645,-0.03520246,-0.025407946,-0.02059374,0.036014322,-0.048691098,0.054352634
their,-0.06391169,0.08057508,0.10790764,0.033839,-0.024386061,-0.09031723,-0.06279821,0.090262,0.022192169,-0.1371248,-0.038047235,-0.09848722,0.023639163,0.061662354,0.3193427,0.09870428,0.032211885,-0.09857685,0.00097234367,0.005381534,-0.026930356,-0.03651651,-0.21194275,0.05322393,-0.08121403,0.1354702,-0.10578367,-0.020627601,0.13194603,0.050880503,-0.036103334,-0.19082324,-0.18587276,-0.071029976,0.015516973,0.05470556,0.12324467,-7.9528974e-05,-0.06590275,0.032809366,-0.119781084,0.2570113,0.03484541,0.04141989,-0.079755016,-0.03545016,-0.18891543,0.13526793,0.118230104,0.05797025,-0.053822234,0.004842088,-0.020728165,0.05457453,0.09078537,0.18553849,0.13464563,0.025302028,0.026593752,-0.04502674,-0.2506357,0.036844153,-0.10158261,0.11477787,0.09988835,0.091672935,0.035477128,-0.11837744,0.019020446,0.024906432,-0.038549062,-0.0013849132,-0.09604493,-0.21654871,0.028821647,0.032871734,0.10831125,0.016963618,-0.07740751,-0.004765659,-0.09113252,-0.04252948,0.1822267,-0.03704861,0.115426734,-0.02746383,-0.10472167,0.08749306,-0.0219602,0.024329796,-0.049226955,0.095479205,-0.116467744,0.029419743,-0.038246132,0.020745449,-0.101121485,0.08777719,0.11663013,0.1430434
have,0.03817389,-0.04449638,-0.004323811,0.036520906,0.11986787,-0.041648846,0.004281318,0.021088162,-0.039667524,-0.008643266,-0.015926078,-0.091580324,-0.040519625,0.022731565,0.095190205,-0.007076079,-0.12624732,-0.053840365,-0.100384384,-0.11170641,-0.048446983,0.09047488,-0.21612853,0.035901748,-0.011104798,-0.09359154,0.0023016806,-0.19878188,-0.21060503,-0.13815477,-0.03895598,-0.0868933,0.06184006,-0.011358289,-0.03597172,0.1521376,-0.032382887,0.3005915,0.0053844857,0.118951336,0.08649455,-0.061668493,-0.1095701,0.26393977,-0.10147109,0.035812903,-0.114045024,-0.0037266228,0.05447872,0.18931717,0.043058123,-0.06919815,0.04160068,-0.032345396,-0.04412021,0.1552643,-0.10809858,0.036713652,-0.16491455,-0.03734714,-0.050207317,0.1751137,-0.07337382,-0.13605917,-0.05964529,-0.0030803194,0.06966371,-0.12147964,0.080224164,0.015873257,0.11841525,0.05468782,-0.012528457,-0.043104842,0.08115736,0.058908854,0.068999,0.00927394,0.034096386,0.10250149,-0.081192516,0.15077561,-0.17479372,-0.07609984,-0.1951907,0.17962329,0.032428354,0.00080959563,0.059523,0.08675361,-0.013197206,0.13192347,0.09171577,0.10835639,0.026466973,-0.041842498,-0.08585018,-0.19885926,0.008084519,-0.030796455
he,0.06634241,0.007890069,0.058031313,0.12402637,-0.037166998,0.07405073,-0.14801948,0.1662513,0.0139533235,0.15901716,-0.008259518,0.102628,0.16789857,-0.007498493,0.016974539,-0.08953229,-0.10450858,-0.22275391,0.16121162,0.09984986,0.11441118,0.0068565663,0.06828559,-0.088671826,-0.021930918,0.17071214,0.00017484419,-0.008230411,0.1152305,0.04953719,0.019571422,0.066033505,0.24917935,0.021232398,0.0054787593,-0.11406791,-0.05536215,0.047284726,-0.0960961,0.06402162,-0.045489874,-0.013229833,0.15912944,-0.09543488,-0.04201946,-0.16159528,0.0049288077,-0.055801295,0.07447626,-0.039454307,0.0246165,0.15607353,-0.11292806,-0.0005586268,-0.06718708,-0.098198704,-0.15200631,0.15767603,0.035521373,-0.11082066,-0.02186469,0.119137,0.055386502,0.07232881,-0.15579851,-0.08672361,0.12853567,0.04495532,-0.16139616,0.13945521,-0.08838947,0.01851906,0.009123021,-0.07620303,0.111235335,-0.089922465,0.09630659,0.021441735,-0.032292306,0.18978806,-0.097701,-0.05749535,-0.07771715,0.004651692,-0.09570996,-0.06227953,-0.14990209,0.09673257,-0.03505961,0.14575903,0.10444982,-0.13915156,-0.084399156,-0.08757745,-0.16357443,-0.069848284,0.065801285,0.11213793,-0.0991636,0.05668535
them,0.017845897,0.18019335,-0.014897511,0.045454368,0.023694942,-0.08576019,-0.13049513,0.23764105,0.025252117,-0.11154767,0.019405866,-0.17437664,0.031587675,-0.023367831,0.26173753,-0.0655614,-0.19785887,-0.16352104,0.14935571,0.10544905,0.009975284,0.083248034,-0.1913717,0.09212886,-0.035822306,0.21708894,0.0068684276,-0.03287046,0.06876966,-0.017710403,-0.1779573,-0.041255943,0.025320904,-0.004314523,-0.025366925,0.087992966,0.09883667,0.0005023212,-0.055382572,-0.0850636,-0.14714031,0.24341576,0.0845569,0.0038440668,-0.11010303,-0.09898669,-0.047900446,0.04100472,0.06393483,0.023608863,0.05839352,0.05265536,-0.13630903,-0.03125424,0.10338807,0.04911258,-0.05397319,0.03557501,0.016998788,-0.080865465,-0.10795974,0.13725774,-0.025431834,0.022344716,0.06082313,0.046866734,0.12315472,0.061110042,-0.07436056,0.09866848,-0.03817223,0.004958635,-0.0015228725,-0.12689239,-0.004373575,0.127825,0.045342382,-0.018303772,-0.14185688,0.11723595,-0.08441747,0.153765,0.031181313,-0.21363543,0.12648457,0.0011512883,-0.03995171,0.17440562,0.023129923,0.07889485,0.09193366,0.086990684,-0.08772523,-0.03830607,0.013388414,-0.1292659,-0.081254125,0.019326475,-0.010202784,0.07141539
his,-0.008532089,-0.02444392,0.23267737,-0.14116944,-0.21108188,0.018869031,-0.17061976,0.020409608,-0.055961177,0.09665959,-0.029265707,0.025585717,0.0763617,0.0049253395,0.1345441,0.09379482,0.065783344,-0.12360479,0.060902957,-0.057868734,0.021540523,8.764245e-05,0.019721065,-0.12286787,-0.21231394,0.1442717,-0.051039595,-0.058806177,0.06994236,0.0718018,-0.013995877,-0.037745662,0.01624028,-0.0816069,0.0012847959,-0.10319521,0.03572296,-0.0058541605,-0.16399635,0.12911727,0.05018981,0.15565915,0.08861614,-0.08894386,-0.018216321,-0.1924842,-0.055541508,0.006656756,0.0017153213,0.06299974,-0.1073605,0.06188958,-0.0273756,0.07639069,0.0077151307,-0.0251374,0.0027081268,0.1364753,0.078190744,-0.020608723,-0.099542096,-0.06824754,-0.026483549,0.121354066,-0.030974872,-0.0045674588,0.12476721,-0.1614194,-0.115913436,0.21325292,-0.12635419,0.08701417,-0.13285224,-0.23597236,0.10331551,0.03473405,0.05116483,-0.0050460654,-0.02478664,0.06153272,-0.06453514,-0.04465706,-0.090898745,0.052912265,-0.14837493,-0.07654351,-0.14645803,0.11848279,-0.049643274,0.18786882,-0.06513157,-0.11425754,-0.21314222,-0.08676051,-0.15020795,-0.01538444,0.06521531,0.087637454,-0.017732838,0.09822122
all,-0.17672683,-0.03821567,-0.023493392,-0.08322388,0.16860707,-0.028160455,0.00046359195,0.10167063,0.16000323,-0.1797163,0.014362555,-0.0012055056,-0.08970158,0.0036309457,0.0386319,-0.053431474,-0.046399597,0.11202149,-0.08483614,0.0064957244,-0.23321046,-0.14327928,-0.0006681534,0.17889051,0.0409573,-0.15299799,0.13819009,-0.112586215,0.062445685,0.11374416,0.03203537,-0.10054339,-0.07724851,-0.22126436,-0.019990848,0.011002302,0.14486235,0.09889682,0.058648396,0.15607463,-0.14699261,-0.060965855,0.052479982,0.093062066,0.08913488,-0.020588636,-0.026836518,0.026545785,0.07023073,0.06587781,0.07432416,0.081832826,0.08854211,0.025575118,0.12373515,-0.011604801,-0.07773929,0.046391968,-0.2276626,0.0952565,-0.26324356,0.048974592,-0.046444647,0.11906762,-0.07791599,0.005290059,0.052081615,-0.023871949,-0.035725836,0.2382877,0.0128004905,-0.21012555,0.050827373,-0.1516779,0.060009982,-0.09933996,0.05279424,0.098759875,-0.053460557,-0.10750943,-0.028217327,0.038295284,0.030087411,0.040853508,0.053859994,-0.02000261,0.03767334,0.101441525,0.077290185,0.10361365,-0.0011180844,-0.015894458,0.085670836,0.06762597,0.008557014,0.045170628,0.05664609,0.034813613,0.18163998,-0.08330662
this,-0.120771706,-0.10076102,0.1008511,0.1598767,-0.122906834,0.00743144,-0.039894067,0.047418736,0.215434,0.109871574,0.0019414796,0.097286284,-0.07440389,-0.019312643,-0.054952487,-0.00900057,0.026998512,0.15770067,-0.08037248,-0.21927999,-0.058568887,0.07628241,0.21828504,-0.105664365,0.031102536,0.09198357,-0.015477844,-0.08448171,-0.04726171,0.018266762,-0.014127513,-0.07010515,0.09028421,-0.059846308,0.00010375833,0.11886064,0.1217368,-0.117906734,-0.0036012097,-0.042855583,0.08918964,-0.21561106,-0.052949894,-0.0857893,-0.035443425,-0.2683673,-0.07630608,-0.07322733,0.039424453,-0.05437654,-0.034853842,0.001942369,0.039750706,0.036077663,-0.08771363,0.008634613,-0.09213552,-0.07479712,-0.1339529,0.123885795,0.1870219,-0.11217037,0.004319786,0.019574467,-0.058824744,-0.008217015,0.019523077,0.040773842,-0.1764599,0.13558674,-0.04153759,-0.0016659487,-0.015071633,-0.08676047,-0.046668816,-0.048883587,0.016796848,-0.016547786,0.016707884,-0.06654252,-0.042280078,-0.18665591,-0.06631808,0.17664407,-0.13548326,0.066135906,0.05878101,-0.040542,-0.088345475,-0.034977064,-0.13648571,-0.109824866,0.1326069,0.12721713,0.273545,0.06657608,-0.14243855,0.021087732,-0.069564156,0.02960148
we,-0.069321625,0.051500786,-0.1460051,0.18870029,0.0018173216,0.0020068453,0.118400194,0.12089563,0.12143385,0.031365514,-0.110131316,0.084463306,-0.029251698,-0.06873922,-0.01662673,-0.013865594,0.009154847,-0.043750763,0.11487972,0.009703667,0.19308077,-0.0014558241,-0.010099775,-0.022736272,0.008580795,0.15053697,-0.02319134,0.08516931,-0.07978032,0.053273212,0.019770857,0.048257887,0.027028233,0.088569425,-0.10714617,0.09053343,0.067846246,0.05465795,-0.06372444,0.047652744,-0.2823905,-0.02304145,0.07954959,-0.062821105,-0.0496002,-0.1041671,0.2544985,-0.028881285,0.14186627,0.089049034,0.07121194,0.025300456,-0.17395623,0.0057411846,-0.14474174,0.15183824,-0.10745698,-0.06516927,-0.081523485,-0.039442252,0.07725784,-0.0494431,-0.065009154,-0.03170935,-0.078305684,-0.026620623,-0.031180456,0.20055537,-0.008445034,0.103184424,0.09263849,-0.15997969,0.084531136,-0.0008066149,-0.07318061,-0.12833956,0.0024050984,0.06338093,-0.041791707,0.12613748,-0.09586273,0.06375807,-0.04637368,0.11120958,0.1987654,-0.055643275,-0.035406087,0.17038333,-0.0026222712,-0.15593596,0.19901164,-0.104678966,0.19665736,-0.04963203,0.17471483,-0.027558189,0.059040643,-0.070069924,-0.112115465,0.020773944
from,-0.09737768,0.09431259,-0.120677054,-0.09406195,0.22891375,-0.08931436,-0.051774967,-0.12637155,-0.06397723,0.1067202,-0.061159547,-0.019591557,0.030789817,-0.05794076,-0.05367938,-0.036673117,-0.023742838,-0.1809446,-0.042619605,0.07643273,-0.12996832,0.0904061,-0.027353369,0.0072289067,0.03156773,-0.069447085,-0.17169943,-0.100224406,-0.12877665,0.10166051,0.15752305,-0.111181654,-0.17432621,-0.108481094,-0.024708971,0.10049822,-0.2569594,0.113531746,0.023522677,0.009430375,-0.107815094,-0.10822468,-0.08159765,0.13019639,0.12935495,0.10353441,0.012561548,-0.0057361913,-0.037319254,0.013471825,0.08779981,-0.14788534,0.08504722,0.052164678,-0.021274306,-0.00606194,0.15422791,0.102501035,-0.11695076,0.016951546,-0.17247777,-0.05910826,0.057900548,-0.07028208,0.02538374,-0.17128582,-0.034521896,-0.04110118,0.14021976,0.057270654,-0.096924424,-0.065758996,-0.052290004,0.027921095,0.06578652,-0.07081069,-0.20739073,0.040248547,0.012386842,-0.08697928,-0.06796046,0.03250052,0.115712576,0.019946048,-0.059913862,-0.03770139,-0.12972242,0.06369853,0.14683206,0.030078495,0.13615333,-0.04815214,-0.03396092,-0.1726628,0.07237206,0.030514764,0.22830097,-0.07634882,-0.10096624,-0.08766037
any,0.2413836,-0.17210259,-0.124691874,0.0853978,-0.111520104,0.03507158,0.022574749,0.046202704,0.021869665,0.061042022,-0.013860906,-0.05998904,-0.07932602,-0.099099435,-0.052510895,0.13357848,-0.08072053,-0.21620625,-0.09830575,-0.055914953,-0.017736094,0.044628974,0.14509816,-0.105541535,0.007092754,0.0647871,-0.025745694,0.061275877,0.035505638,0.16538069,-0.17417091,0.1132468,0.23961379,-0.044970546,0.017571967,0.11879714,0.00031558675,-0.116140515,-0.035445534,-0.05613067,-0.20510513,0.06538868,0.10910043,-0.13862798,0.20574133,-0.07699598,-0.04613446,-0.062027466,-0.07255661,0.14257632,-0.064953335,0.069546655,-0.013541208,-0.019010507,0.116635464,-0.056278564,-0.18159051,0.042115316,-0.13122523,0.14939384,-0.05843393,0.05811393,-0.098782465,-0.0046344693,-0.14030798,0.027268918,-0.07559147,0.027413407,0.022413718,0.1593753,0.0022471175,-0.025445845,0.0687901,-0.013657623,-0.14139532,-0.07926113,0.05065329,-0.136707,-0.10740935,0.03155435,0.036389463,0.024624445,-0.19471991,0.0587366,0.06021329,0.13403317,-0.20700562,0.03090965,-0.08698493,-0.093129866,-0.019259684,0.08358586,-0.027592931,0.020513972,0.025785549,-0.0598036,0.014288276,-0.1426963,0.06532562,0.0034174148
one,0.021476295,-0.14196919,0.032621473,0.016644314,0.109309725,0.071543835,-0.035598837,-0.113352075,-0.10115294,0.032755785,-0.03696407,-0.032854605,0.027710909,0.05963573,0.10443946,-0.08374259,-0.093600646,-0.21359651,-0.007906852,0.09049921,-0.12519497,0.0105056055,0.025218027,-0.019916123,0.1793409,0.09182448,0.050549068,0.14441955,-0.11627226,0.018924536,-0.057570376,0.094901465,-0.05172393,-0.036780167,0.18180056,-0.0058032377,-0.08912745,-0.08559125,-0.051835172,0.09453421,-0.23686592,0.062468786,0.1993354,-0.00033368278,0.049173553,0.02932562,0.04976277,0.15728323,-0.061771244,-0.0872317,0.14604303,0.21282506,-0.1014307,-0.049644932,-0.058593843,-0.113398656,0.031473644,0.17244337,0.057905734,-0.046715487,-0.044086184,0.024133928,0.016068652,0.14276192,0.032578025,-0.07079986,-0.038469557,-0.005901943,-0.25637618,0.055539947,-0.015002147,0.12343479,-0.077182785,-0.06516565,-0.114285134,-0.10490592,0.038196463,0.030600829,-0.037531972,0.17291884,-0.1934344,-0.0007778099,-0.14223863,0.04488325,-0.0649672,0.1802289,0.043417893,0.17791016,0.04727599,-0.04929339,0.0077754506,0.052530073,-0.049844753,0.083115965,0.10943145,-0.016375806,0.06513627,-0.12873523,-0.19735333,-0.042601574
i,-0.046594065,-0.11304472,-0.045693863,0.20037644,-0.06621142,-0.06073058,0.026247008,0.110110976,0.18344823,0.11001988,-0.039630998,0.07609527,0.0021475153,-0.08628399,-0.094437234,-0.10014085,0.010942817,-0.16891418,0.12986954,-0.01952894,0.07334449,-0.044314645,-0.0028054435,0.06924292,-0.06206474,0.1459351,0.004537386,0.032552402,-0.066612825,-0.041693494,0.048840713,0.015083688,0.12088959,0.055095043,-0.017687425,-0.04891754,0.0056299767,-0.017980939,-0.07827212,0.061640866,-0.09198347,-0.16730049,0.018719165,-0.08131366,-0.11203337,-0.12730971,0.1402119,-0.043040752,0.063273795,0.051293023,0.113032535,0.010397815,-0.08905732,0.12702188,-0.1450574,0.13358216,-0.14332852,-0.067568615,-0.091876216,-0.010019247,0.21592742,-0.061802484,0.058656294,0.08658024,-0.15825853,-0.0019235542,-0.042760767,0.07553944,-0.008396676,0.0035252587,0.074586935,-0.07905254,0.17062332,-0.05783102,-0.01154159,-0.17468835,-0.05731877,0.061707698,0.055297934,0.115954556,-0.086342715,0.013060338,-0.15997007,0.08413609,0.0031976514,-0.07900064,-0.0280513,0.15590644,-0.025236938,-0.14673592,0.12095541,-0.023265097,0.23211889,0.16843085,0.20855407,0.03669275,0.021137867,-0.013545489,-0.2816593,0.017675437
so,-0.120915785,-0.08179013,0.13517538,0.028262455,0.08377818,-0.050935086,-0.13014504,-0.04310837,0.06318445,-0.040985856,0.03689851,-0.063232735,0.0651459,0.055411823,0.118322834,-0.027031137,-0.083075196,0.14316884,0.03827966,0.18248166,-0.032261983,0.093155324,0.16722296,-0.097995535,0.042601775,0.1486373,-0.104983285,-0.032806557,0.03084352,0.0919565,-0.052467573,0.008916625,0.10260477,0.17497645,0.02443288,0.17766559,0.021930657,0.05995197,0.064290844,-0.000619653,-0.08609316,-0.13907337,0.0004358372,0.09621042,-0.07652428,-0.06497888,-0.09900249,0.03929003,-0.013667488,-0.23309298,0.13585316,0.008958606,0.19157428,-0.14814144,-0.08351176,0.20152205,-0.13770564,0.100777894,0.07967294,0.03501969,-0.06092017,-0.029547166,-0.06568335,-0.039888334,0.049463265,-0.13183786,-0.11378644,0.038381867,0.027306834,0.1848535,-0.03846045,0.030593293,-0.024620753,0.10563482,0.10204929,0.14053303,0.09015634,-0.12709863,-0.07942393,0.15597735,0.0061707683,-0.016753605,0.12364665,0.038230658,-0.15703385,0.041715555,-0.081331395,0.015606429,0.16684572,-0.00795648,0.28013343,-0.02339177,-0.07077472,0.010386039,-0.029171119,-0.009371274,0.04463975,-0.036335308,-0.068323895,-0.18789305
no,0.18507217,-0.17118679,-0.14862366,-0.010484818,-0.058797594,-0.03701334,0.043979947,0.01894012,0.18685825,-0.0068067764,0.07791494,0.06449978,-0.28979284,-0.04058507,0.04475513,0.090119414,-0.16910805,-0.18679485,0.006037447,-0.107688166,0.019826556,-0.0034504298,0.1276177,-0.13930051,-0.016262596,0.12425619,-0.04890942,-0.039837908,0.015123962,0.07399571,-0.10769924,-0.0599737,0.18261547,-0.047224667,0.058174234,0.020284414,-0.13356334,0.020868007,0.08709634,-0.012172429,0.024997326,-0.06462974,0.014266188,-0.203018,0.21287696,-0.080082946,-0.061625354,-0.029744273,0.046315495,0.074806884,-0.08247221,0.06610201,-0.011189386,0.09433967,0.16936128,-0.14132151,-0.036286257,-0.012558984,-0.16759786,0.052565143,-0.062300075,0.035782766,-0.119469434,0.06284354,-0.05643829,-0.08068292,0.034453414,0.06445194,-0.19582805,-0.0054397653,0.057005018,-0.05296095,0.067535184,0.031234499,-0.01315069,-0.09318556,0.10509204,0.05015906,-0.15719804,-0.09487846,0.075814135,-0.04722966,-0.086834274,0.06930295,0.047074042,0.16889825,-0.012286582,0.006570071,-0.20335089,-0.14656451,-0.18715517,0.0021124051,0.046745867,-0.0159795,-0.07383334,0.12007875,-0.01115857,-0.0007025306,0.14534084,0.015478761
with,-0.10136192,-0.047017775,-0.06487345,-0.1477813,0.12515543,-0.117020994,-0.12742382,0.025916606,-0.15446119,-0.18381266,-0.013401916,-0.022794126,-0.03431273,-0.08642612,0.09230099,-0.035347346,-0.15465961,-0.1780137,-0.08856369,0.25294867,-0.17567919,-0.06928135,-0.0044396967,-0.055605344,-0.06067865,-0.10890605,-0.046593763,-0.044432383,-0.08182168,0.055681087,0.02396908,-0.064153895,-0.021995937,-0.024653578,0.122546434,0.08619057,-0.11026986,0.12080707,-0.04347626,0.1569774,-0.1173322,-0.08569899,-0.15124168,0.19494303,0.19738609,0.032431267,0.10609697,0.0031100968,-0.09915966,-0.011668895,0.101575345,-0.0045144935,0.05488583,0.039430898,-0.013477944,-0.00011844823,0.104298,0.098813914,0.027504139,-0.06448362,-0.1068108,0.04360936,-0.07911114,-0.0699185,0.0005765348,-0.049070567,0.07584761,-0.031577736,-0.046251968,0.060029447,0.04466964,0.043817867,-0.03441222,0.046575274,0.18042514,0.064564645,-0.1516669,0.0023844538,-0.13458599,0.08184579,-0.052442487,0.08930051,0.14989108,-0.07554475,-0.21824569,0.03514033,-0.11139854,0.14236087,0.112676896,0.036549374,0.10875103,0.03854493,-0.064875886,-0.061579686,-0.022715643,-0.037390653,0.0815249,-0.24804139,-0.048983585,-0.13383944
ideas,-0.001658376,0.1310659,-0.10717959,-0.2241003,0.0017120817,0.005813642,0.0060667456,0.117599964,-0.10087402,-0.012665619,-0.070834056,-0.08376777,-0.10814477,0.036046833,0.058767814,-0.12131124,-0.14902979,-0.050817885,0.09155628,0.017844647,0.092191756,0.04931064,-0.08924513,0.17766695,0.055167545,-0.0450877,0.026792474,-0.12997803,-0.16614799,0.066494204,-0.21941854,0.03516444,0.10867249,0.030242443,0.019072367,0.10428443,0.0017588559,-0.018221246,-0.01657785,-0.045962624,-0.2561079,-0.063893594,-0.01845893,-0.09067507,0.12474197,0.08972237,0.052500837,0.12768173,0.015739992,0.11202308,0.10196687,0.03967852,0.020944703,-0.09332094,0.15077636,0.02868455,-0.0067632906,0.01261745,0.13385296,-0.090280145,0.046281453,-0.10586395,-0.16008301,-0.09832582,0.017159149,0.095655,0.08490248,0.13055597,0.046429634,0.033642292,0.11329144,-0.02414782,-0.0028021457,0.12883173,-0.032046854,0.09486619,0.09517169,0.044652708,-0.10066801,0.14858304,0.05635772,0.10227242,-0.02141194,0.10555299,0.17836821,0.10157975,0.06435503,0.12952793,0.18721269,0.004248566,0.2994859,-0.0012862281,0.04488612,-0.113067806,0.01838969,0.09927325,0.061965786,-0.121885315,-0.089565605,-0.024185797
man,0.043820433,-0.08987378,0.14862393,0.008827044,-0.07799683,0.012719065,-0.10310741,0.011001634,0.013085405,0.08494151,0.03956985,0.078669816,0.012005345,0.034349415,-0.035695918,-0.06175435,-0.06530726,-0.21892284,0.17067663,0.088071376,0.12294643,0.14203008,0.083660014,-0.1632365,0.07970316,0.083206326,0.096826255,0.08782296,-0.08094026,0.018301822,0.0078784805,0.112905696,0.0036715877,-0.042875398,0.11472731,-0.03806836,-0.13497263,-0.10044605,-0.09941659,-0.019698337,-0.1509903,0.101328686,0.094127506,-0.028830325,-0.031936254,-0.14105941,0.042615175,-0.10169844,0.13972665,-0.090400115,0.1383218,0.22150502,-0.07456771,-0.05089614,-0.035135265,-0.036150806,-0.06104267,0.1845549,-0.027997237,-0.11298485,-0.017870527,0.033088025,0.036462188,0.039696965,-0.15627426,-0.06669779,0.0030180677,-0.084605485,-0.26008227,0.124579936,0.00026526337,0.16326348,-0.028030606,-0.003947835,-0.08460338,-0.003476649,0.07513065,-0.056796946,-0.04501322,0.20237346,-0.19947112,-0.003383779,-0.18214093,0.059294917,-0.17780516,0.059718087,0.010480712,0.042359762,-0.018960452,0.11469178,0.09550491,-0.06974224,0.014786884,-0.037536547,-0.17717625,-0.056085955,0.044604894,0.08881622,-0.18787517,0.0016992023
our,-0.11050206,0.23955569,0.086422235,-0.108846866,-0.124502145,0.008439591,0.06568982,0.019047856,0.08075554,0.059590645,-0.097185306,0.040888377,0.005161212,-0.009723628,0.16176718,0.11196795,0.13019763,0.10910145,-0.03644207,-0.168638,0.097075984,-0.001962446,-0.122010514,-0.05072801,-0.18765137,0.20822358,-0.06759736,-0.08901724,-0.046078835,0.042067934,0.018385697,-0.13301778,-0.098603226,-0.06976942,-0.14705111,0.14206426,0.21296118,0.13726228,-0.107923746,0.09938204,-0.124448165,0.06559331,0.01993264,-0.029027747,-0.04744588,-0.22502592,0.06268571,-0.00716458,0.12831174,0.12628841,-0.02649616,-0.035717588,-0.16305605,-0.035259053,-0.025178777,0.16150068,0.10314724,0.028421938,-0.004043903,-0.029052451,-0.11407943,-0.16096583,-0.22962262,-0.061630905,0.11455262,-0.007310576,0.016243543,0.031036455,0.09222227,0.13385125,-0.05226169,-0.076331906,-0.068424515,-0.05998303,0.079068154,0.026807647,0.066418745,-0.004240681,-0.063692115,0.025660919,-0.09821466,-0.012879272,0.048322704,0.12247771,0.075554706,-0.050762683,-0.10165362,0.11170902,-0.028842354,-0.03549944,0.028853126,-0.14368688,-0.009624642,-0.08150866,0.17819656,0.07582719,0.092865765,-0.021226406,-0.022945441,0.078626245
other,-0.12092662,-0.026554646,0.120494865,-0.085106865,-0.023966234,-0.031341407,0.023734747,-0.011336097,-0.1404453,-0.08209208,-0.04991459,-0.18942878,-0.13984692,0.01801875,0.23793685,0.12060798,-0.07708304,-0.013380642,-0.070483714,0.11872582,-0.20969132,0.1644189,-0.04407069,-0.089796804,0.07761633,-0.057308737,-0.1022737,-0.17490555,-0.11330206,0.0790979,-0.10225803,0.08966943,0.00200893,-0.1681728,-0.14446746,0.08781864,-0.074728616,-0.068361044,-0.02303495,-0.13021445,-0.04485936,0.18771692,0.028392546,0.09883234,0.043996666,0.14429487,0.10069907,0.12115548,-0.034787137,0.06798988,0.09079856,0.03518903,0.2184841,0.0846194,-0.07535604,0.122950055,-0.027719816,0.13499144,-0.0056160074,-0.03362245,0.041181143,0.19411397,-0.1842154,0.002133309,0.03879345,0.17418687,-0.011237963,-0.076414555,-0.13183689,0.124368966,-0.013924197,-0.07853629,0.0046408176,-0.1822214,-0.081478655,0.03108155,0.010217196,-0.0078084227,0.036780633,0.1289569,0.06615297,0.07201095,-0.111681335,-0.015764525,-0.014064582,0.1153891,0.13349213,0.05673269,-0.06541038,-0.114940085,0.078865,-0.016119147,-0.10112344,0.11446608,-0.016038505,0.029229512,-0.03806947,-0.028390847,-0.03753155,0.03517843
there,-0.021037968,-0.24256702,-0.024764648,0.1234891,0.015737524,0.19857842,0.07240715,-0.06321244,0.08130131,0.032542203,-0.019626362,-0.086317725,-0.09759588,-0.018326037,0.021906856,-0.12344385,-0.19486378,0.1340327,-0.027744183,0.13651018,0.13131781,0.043125696,0.030423013,0.012655102,0.16568495,-0.11451226,0.090125,-0.06597777,0.07110376,0.002359695,0.097604886,-0.04953833,0.01231441,-0.065345325,0.18093795,0.18844819,0.02645836,0.09046805,0.058894303,-0.11783,-0.014531808,-0.0903437,0.12522212,0.034121085,-0.053398527,-0.102148965,-0.073152654,-0.08658026,0.07872908,-0.045694232,0.14012417,-0.017954255,0.08499532,-0.2132242,-0.0598933,0.11009152,-0.034660608,0.1489624,-0.1350166,0.016306639,-0.001249716,0.13844454,0.02717449,-0.10894813,-0.1278825,-0.0069679418,0.06774495,0.22102258,-0.21806909,0.1094802,0.04182697,-0.06175512,0.04516472,0.051954493,-0.06348412,0.001132606,0.13077581,0.14266576,-0.07564902,0.094872154,-0.097073354,-0.09773919,-0.045673087,0.004659298,-0.0854784,0.15056463,0.14700256,-0.10010953,-0.035595007,-0.008279498,-0.0966766,-0.10044328,-0.019077946,0.15239896,0.040841352,0.09121225,-0.04220369,-0.0973668,-0.024934296,-0.062096383
if,0.03437385,-0.025049122,-0.12576695,-0.10046643,0.011647059,-0.06614277,-0.1110791,-0.14349014,-0.022008281,-0.030439,0.15565741,-0.06825092,-0.18298954,-0.1145251,-0.0831867,-0.019443272,-0.040206455,-0.13523324,-0.08071302,0.15408055,-0.06915534,0.014613878,0.15367076,-0.085305855,-0.07782253,-0.07192261,-0.14529303,-0.09204138,0.13029963,-0.10313135,-0.18783839,-0.046045773,0.22688805,0.18283148,0.04463413,0.0583221,0.00057961215,0.03484905,0.01660426,-0.04250147,0.034032222,0.043428663,0.08367884,0.13785689,0.06584308,-0.026909936,0.08968816,-0.12236392,0.042305212,0.10545333,-0.00879512,0.058220614,0.14413954,0.033084348,0.071886815,0.0021794303,-0.057663653,-0.027704354,0.0194469,-0.15837932,-0.08071831,0.092184484,0.07132645,0.09665093,-0.18288493,0.054490022,-0.011245839,0.0651567,-0.1797493,0.2071688,0.083476946,-0.048857998,0.16006657,0.15841287,0.13955016,0.16955172,-0.076896764,-0.14394584,-0.1788556,-0.11761159,-0.042098418,-0.011108347,-0.04774687,0.031985935,0.04201428,0.0353836,0.0059990846,0.003336981,-0.106758416,-0.01945057,-0.006832072,0.011960229,-0.13060106,0.08941958,-0.005570519,0.052393995,-0.008301141,0.10612561,-0.19528201,-0.10648067
men,-0.06333859,-0.04770243,-0.020019956,0.16771571,0.011655486,-0.11741845,-0.07818106,0.15701297,0.093155645,-0.22976635,0.0848662,-0.05602842,0.011156703,0.030684402,0.18037711,-0.11986565,0.010640237,-0.025890525,0.28958362,0.17979996,0.059772715,0.022581875,-0.1395149,0.16776292,0.08541373,0.13762829,0.08292382,0.2150566,0.020187391,-0.022610039,0.006625159,-0.12040599,-0.15360177,-0.047188785,-0.074330516,0.044781644,0.047847982,0.023312459,0.049297452,-0.086813375,-0.18644601,0.05490417,-0.058602292,-0.03526294,-0.26556212,-0.099334024,-0.1668175,-0.014263679,0.17461249,-0.05141559,0.10789703,0.018238865,-0.055945598,0.037271794,0.066773176,0.06601596,-0.021009782,-0.10527259,-0.10852199,-0.038693577,-0.0073628505,0.11291193,-0.00083971873,0.039130203,0.046028607,0.15057461,0.027430052,0.06625426,-0.01183464,-0.013985447,0.14041317,0.09603972,0.118623845,-0.12295973,0.03412875,-0.06725909,0.022839695,0.098482445,-0.074117035,-0.033648014,-0.08362229,0.0116368625,0.054478385,-0.040909823,0.049653508,-0.07602659,-0.024267191,0.14454195,0.073322944,-0.014629027,0.15852542,0.12576906,0.10744877,0.08253386,-0.0024665552,-0.05483108,-0.12870753,0.032972477,0.04825534,0.048019357
those,-0.17430246,0.17901994,-0.004983643,-0.09386688,0.035043318,0.0066600586,-0.045556642,0.077994,0.12289991,-0.14096281,0.038857933,-0.022751624,0.009774096,0.06912167,0.24331832,-0.10289549,0.02520873,0.036417563,0.038323108,0.038140666,-0.061290413,0.13931383,-0.2925106,0.16332468,0.011146294,0.06212483,0.114158146,0.0047135483,-0.06261195,-0.081721626,-0.1105063,0.011905727,-0.15860449,-0.112998635,-0.10903074,0.04354797,0.16357543,0.08567517,0.0608308,-0.14582711,-0.09232735,0.037035,0.1054511,-0.040661417,-0.18084882,-0.07179536,-0.11374399,0.069638975,0.14148737,0.045530852,0.07790425,0.13576652,-0.09282424,-0.10399373,0.09193939,-0.009041344,0.17218198,-0.028014267,-0.06346219,0.019116085,-0.03842514,0.22727935,-0.14247064,-0.06721596,0.080953844,0.031414904,0.023532264,-0.014482726,-0.014710855,0.074488215,0.110909425,-0.10004659,0.006634623,-0.04906179,-0.011171597,-0.061115384,0.05645119,0.07264802,-0.1458729,-0.10160822,0.0029349308,0.1908801,-0.0019176741,-0.09209726,0.13243586,0.070076615,0.017566783,0.20782126,-0.039641976,-0.038700115,0.17247571,0.05985588,0.012629004,0.09490736,-0.014430478,-0.009824004,-0.027495312,-0.08461715,-0.057991624,-0.0123814605
what,-0.060596477,0.09478489,-0.09714024,-0.06598085,0.06894154,0.009280198,-0.06755456,0.0533202,0.2049433,0.023483375,0.03826997,-0.119129665,-0.14199676,-0.18123323,0.019278774,-0.06389323,-0.1409631,-0.13694967,0.058333363,-0.12886877,-0.043897342,-0.004608241,0.055151425,-0.107618704,-0.13640109,0.1474278,-0.024419976,-0.11543984,0.07348455,-0.030769445,-0.045313705,-0.084217586,0.21855105,0.13820098,0.025141567,0.027331866,0.08089872,-0.005828249,0.0062997513,0.0422812,-0.015322695,0.044640344,0.13251148,-0.14891297,0.047667097,-0.24271628,0.0770954,0.12615964,-0.053830404,0.038649987,0.08251583,0.10607417,-0.015289958,-0.051943034,-0.101652436,0.03625623,-0.07644543,-0.053969815,0.062040992,0.033554334,-0.06968972,-0.03926415,0.06762838,0.041222993,-0.045877032,-0.108160324,-0.019530239,0.13423425,-0.28105578,0.17113204,-0.022259956,-0.085373536,-0.04822444,0.092534274,-0.15764697,0.02455915,-0.042966258,-0.0006939654,-0.1945455,-0.055026013,-0.21446304,0.063431755,-0.06396214,0.056169186,-0.0075648543,0.16724196,-0.028401313,0.039112374,-0.08917047,-0.14483112,-0.051158413,-0.13138235,-0.017682321,-0.0006906247,0.12300565,-0.0481741,-0.04916119,0.03235195,-0.22286214,-0.030374998
will,-0.027887093,-0.13421525,0.09201289,-0.02689072,-0.081982695,-0.15206607,0.0119859455,-0.061851386,0.16158295,-0.04958083,-0.022843614,0.05173708,0.0018177354,-0.016089415,-0.01877533,0.07650475,0.10810831,-0.07646245,-0.068925105,0.19289279,-0.13372615,-0.025987733,-0.032773014,0.024908943,-0.16551681,0.06701006,-0.018220052,-0.03395636,0.08969107,-0.088433735,-0.084440485,0.18589921,-0.05702027,0.08070612,0.019457377,0.028446546,0.02644015,-0.24783045,-0.15638898,-0.082911216,-0.003067388,0.033988297,0.1205118,-0.057840656,0.09345808,-0.0579716,-0.031933047,-0.19571033,0.03718587,-0.083004504,-0.07451724,-0.016808804,0.020633569,-0.0017191799,-0.05437029,0.02559515,0.014311646,-0.14299394,0.08753161,-0.208055,-0.015161767,-0.1460261,0.09183174,0.05890599,-0.033887688,-0.056731787,-0.058509123,0.045330327,0.053375803,0.101464935,0.09005907,-0.045893926,0.15903361,0.20529257,0.068583064,0.09255317,0.021585407,-0.13039106,-0.08382416,0.09784369,0.09308204,0.095973946,-0.04563044,-0.017582836,-0.076308325,-0.11579522,0.053778432,0.11117899,-0.025733437,0.10390175,0.17042795,0.11153796,-0.09096559,0.02995699,0.21472004,0.18307076,-0.033363372,-0.05219847,-0.28173754,-0.05967931
may,-0.016163066,0.009427729,0.079411805,0.04321322,0.0019894873,-0.11381957,0.0276245,-0.07394827,0.022029588,-0.24129844,0.03172245,0.012051255,0.10000387,-0.08325817,-0.0044941274,-0.04742953,0.20911686,-0.037700232,-0.075535424,0.14170901,-0.19992188,0.010794403,-0.075484864,0.07584847,-0.034937005,0.06383873,-0.035630964,0.024021436,-0.039480753,-0.043283813,-0.18013771,0.13174097,-0.19595289,0.027539123,0.032854725,0.055531055,-0.01685808,-0.20658295,0.0052692816,-0.14706248,-0.01370929,-0.049460564,0.06718329,0.0015144937,0.13773446,0.014381029,-0.005804808,-0.23056623,0.013707759,-0.04645988,-0.039415788,-0.025882585,-0.0038184456,-0.10110914,-0.05785631,-0.026372261,-0.04898843,-0.13731776,-0.016481606,-0.14925252,0.039856054,-0.10139706,0.15267624,0.022660967,0.03937524,0.0048604514,-0.03225674,0.10214618,0.09165382,0.043426447,0.15467782,0.044311114,0.14804931,0.11817244,0.076625854,0.18973522,-0.16622338,-0.08508845,0.022359965,-0.015307752,0.060214467,0.10842331,-0.05859783,0.026690057,0.00639293,-0.050090883,0.13825355,-0.0818581,0.009474438,0.04776229,0.17150965,0.14334026,0.073223166,0.017707331,0.20324092,0.08274017,-0.02261466,-0.010141158,-0.29176706,-0.14894457
such,0.055782843,-0.033505656,0.094961196,-0.056272607,0.010379984,0.076461956,-0.10748793,0.08614177,-0.055105194,-0.010439448,0.017385444,0.026780069,-0.11082591,0.08989927,0.21963996,-0.034994595,0.009559798,0.02923723,-0.09836533,0.20737243,-0.004979827,0.11756005,0.14445986,-0.018542098,-0.013451421,-0.044790223,-0.031229572,0.08808324,-0.05621803,0.08274476,-0.17598124,-0.20638695,0.06576716,0.039008398,0.054739635,0.102378115,0.047601428,0.068362236,0.010720168,0.012032882,-0.17251396,0.14971785,0.14424516,0.14876008,-0.10225625,0.047536712,-0.0033159559,-0.0751748,0.092157036,0.05289054,0.18438333,0.0051342137,0.099567145,-0.16534394,0.05193662,0.22890255,-0.028238166,0.22891393,0.035820287,-0.09157165,-0.0009910507,0.15354879,-0.05876059,0.08655944,-0.07742675,0.1561046,-0.038759526,0.010734913,-0.08675405,0.08594145,0.001919354,-0.0010906586,0.19838665,-0.1183098,-0.020828197,0.023035336,0.05356849,-0.15203808,-0.061417956,0.055307087,-0.12531811,0.025775006,-0.17224662,0.1336903,0.14475192,0.10195153,0.0709699,-0.07107254,-0.06527078,-0.077081494,0.023387857,0.021176778,-0.14523971,0.033743884,-0.22157334,-0.040799227,0.024261035,-0.041118257,-0.016518746,-0.017154846
on,-0.073910005,-0.059940882,-0.1063218,-0.106664225,0.07329563,-0.026002366,-0.15230827,-0.001389909,-0.06189376,0.21455084,-0.12961948,0.04666889,0.07319834,-0.053901937,0.07013464,0.024244407,-0.051666543,-0.15135418,-0.06229995,0.08083014,-0.10045473,-0.05313043,-0.03443979,0.011781623,-0.028615821,-0.14688428,-0.05418517,-0.18882859,-0.062006578,0.031288378,0.22688366,-0.08869373,-0.09378771,-0.1532437,0.09868091,-0.004934108,-0.1203674,-0.027598856,-0.060896747,0.0110870935,-0.22626339,-0.036817208,-0.08823639,0.025279447,0.09391077,0.115662575,0.07804971,-0.015889345,0.023224784,0.06035723,-0.018434659,-0.108665146,0.07926418,0.24911624,0.08257141,0.036743946,0.17933458,0.14032416,-0.10658828,-0.0028308174,-0.1357485,0.023857135,-0.06993857,0.011748026,-0.0002608588,-0.0066587115,0.007975864,-0.14118052,0.21572277,0.06204652,-0.051147647,-0.12726082,0.09700069,-0.029608395,0.034318745,-0.05938667,-0.01771156,0.0130311735,0.014294692,-0.065754555,0.007539269,0.0032242506,0.07113296,-0.087598264,-0.1953346,-0.12301814,-0.15350035,0.23444799,0.04515957,0.011825057,0.041686587,-0.06370978,-0.09596037,0.06388418,0.13101324,0.077826515,0.14943787,-0.15915668,-0.026205687,-0.059983194
at,-0.19884044,-0.11550064,0.02316297,-0.08562203,-0.08591561,0.07713646,-0.07372969,-0.07948627,-0.18427782,0.039081164,-0.034878194,-0.14134715,0.03991503,-0.061806384,-0.08073284,-0.016179187,-0.15425652,-0.07786137,-0.06402642,0.21787022,0.015981559,-0.108125724,0.12319864,-0.05268029,0.031262957,-0.1285041,-0.045968864,-0.08294633,-0.052512214,0.0065704565,0.04710188,0.05473948,-0.020807326,-0.028452698,0.0060815183,0.15001206,-0.09096362,0.10760826,-0.05832476,-0.03975779,0.03283506,-0.07931546,-0.09717967,0.192698,-0.011334589,-0.014648806,0.03344752,0.05016847,-0.12300644,0.042033035,0.17900111,-0.05443419,-0.09664318,0.052304935,-0.011905039,-0.10079352,0.08876733,0.16387968,-0.13027208,-0.11843912,0.12351432,-0.12382515,-0.09238372,-0.06333713,-0.028758468,0.18930662,0.14074427,0.023607435,-0.086757086,0.08927537,-0.051316645,0.017037004,-0.05875084,-0.12899509,0.28652197,-0.11425342,-0.06479136,-0.04596048,-0.060225263,0.13366197,-0.022199228,-0.15152772,0.0045318934,-0.14939852,-0.16116856,-0.11796447,0.15675497,0.13388674,-0.054738697,0.025325099,-0.028210808,-0.0305399,-0.019149972,0.15871303,0.09354185,0.104795754,0.033797886,-0.057859134,0.047598172,-0.07544777
when,0.024911104,0.15199259,-0.11483164,-0.20805141,0.09875156,-0.029722616,-0.14539973,0.013448271,-0.024340149,-0.049606152,0.102347046,-0.11283992,-0.038729575,-0.06500226,-0.0021922893,-0.036270633,-0.091565564,-0.1638767,-0.18424743,-0.005680269,-0.13559113,-0.15388328,0.12953438,-0.16769278,-0.15870392,-0.071995065,-0.22118145,-0.12755564,0.11016201,-0.05956725,-0.17353792,-0.09039818,0.17327248,0.118699364,0.10996505,0.0028728698,-0.014443702,0.05676879,0.012303565,0.06161941,0.16177069,0.0108737955,0.056804925,0.08031883,0.15328622,-0.012902522,0.11898964,0.10097352,-0.18081966,0.09587947,0.024516452,0.023289567,0.021988962,-0.040826216,0.039517567,-0.006869377,0.02156667,0.07436717,0.04397402,-0.03316189,-0.06422661,-0.025332794,0.08977755,0.11377232,-0.024116969,0.0001642119,0.09169845,0.048490036,-0.21879128,0.11721135,-0.053432148,-0.03275653,0.036074016,0.04352566,0.13894315,0.1201902,-0.15444572,-0.12185892,-0.21189386,-0.08725992,-0.09498779,0.0021080964,-0.020451872,0.061457634,-0.040938247,0.049141116,0.058495272,-0.023903739,-0.08334279,-0.041039944,-0.110735394,-0.040736724,-0.1577468,0.052211054,0.0027790195,0.03035803,-0.0063457084,0.07986543,-0.14543515,-0.12103155
can,0.117628664,-0.11927562,0.023478862,-0.026590016,-0.10804736,-0.042051062,0.13606583,-0.034885406,0.17955963,-0.074031346,-0.0792464,-0.047208205,-0.1050311,-0.04582177,0.08311537,0.10907045,-0.017048465,-0.061369687,-0.18443514,0.19691509,-0.00076584576,0.06759724,-0.05820545,-0.025815148,-0.07123927,0.12939419,-0.04826552,-0.1320858,0.03507078,-0.047856413,-0.18754333,0.20482364,-0.10045151,-0.026392063,-0.0420913,0.090023175,-0.058478083,-0.13372503,-0.10684507,-0.15668091,-0.03459408,0.04664768,0.2154057,-0.10866219,0.13063334,0.061840866,-0.07860751,-0.1881268,0.023573173,0.02651536,-0.084245384,-0.10316802,-0.014546718,-0.15257685,-0.05891642,-0.008409729,0.0070666345,-0.03638567,-0.062932536,-0.10697083,0.036490805,-0.06493437,-0.00826878,-0.06925686,0.050603822,-0.053117894,0.035487607,0.12834902,0.065644,0.08392937,0.09420988,-0.13467379,0.056255613,0.11338695,-0.0613608,0.08955159,0.030231053,-0.06961517,-0.07498114,0.14609547,0.12910223,0.19671777,-0.15990624,-0.11186544,-0.042102218,-0.008147996,0.13838454,-0.024245877,-0.06753338,0.028983045,0.080314785,0.052422963,-0.07863706,-0.07664924,0.11364404,0.16011791,-0.03336803,-0.21560757,-0.15154937,-0.06012908
was,0.09688232,0.011694585,0.076079495,0.061126746,0.014380165,-0.08642961,-0.0103281,0.049247622,-0.11914863,0.010880202,0.19156809,-0.098535635,0.069077834,0.27435946,-0.09183104,-0.04631423,0.033082016,-0.06992929,-0.02355393,-0.056117505,0.08688315,-0.08344482,0.027992582,-0.005105166,-0.093187004,0.009501693,-0.069978744,-0.009852162,0.06724954,-0.1661423,0.06508787,0.21215546,-0.08025385,-0.05670332,-0.010254828,-0.086305045,-0.09720983,-0.018681496,-0.03102162,-0.103425935,0.33646923,-0.10487223,0.041089535,0.11788065,-0.06576925,0.09205091,-0.21529704,0.017502204,0.06584025,-0.06369291,-0.15400036,-0.09242492,-0.028235767,0.013950062,0.094396666,-0.19490626,-0.03130213,0.028033992,-0.17889352,-0.025525875,0.100209944,-0.013879351,0.027988814,0.04559266,-0.071390815,-0.013093575,0.070269205,0.021549525,-0.03552068,-0.008036719,-0.04010209,0.0140648335,0.017014872,-0.041071136,0.2850864,-0.041809343,0.020879494,0.014729487,0.048259795,0.022948438,0.12540759,-0.0580538,-0.18422036,-0.16208635,-0.15575832,-0.2145337,0.06678285,-0.027821068,0.032766692,0.13899831,-0.02166275,0.06648588,-0.020077713,0.04276414,-0.14591597,-0.009665135,-0.017829593,-0.0051132874,0.13639645,0.016914658
an,0.16184846,-0.13403092,0.18821117,0.111780666,-0.18114947,0.069838576,-0.12989272,0.05173354,-0.07240846,0.029618518,0.09825592,0.10027793,-0.029292095,-0.020010412,0.020384446,0.0628541,0.11169211,-0.21114859,-0.109579585,-0.19734415,0.03981409,0.09339964,0.25351822,-0.1826385,-0.05574842,0.07309482,-0.0882411,0.08111442,-0.062673844,0.081918344,-0.3007595,0.040715225,0.1434178,-0.017381119,0.0999902,0.02178856,-0.158682,-0.12304681,0.0035832464,-0.117833965,0.00067463005,0.021148218,0.056105472,0.019676808,0.0710676,-0.14051342,-0.046746142,-0.12084207,0.009266096,0.0116303265,-0.08558374,0.000856205,-0.03300253,3.054209e-05,0.027126722,-0.008695771,-0.06434161,0.030922752,0.020362427,0.021730844,0.12358639,0.008420401,-0.08884288,0.09398038,-0.16530831,0.08475546,-0.16172606,0.00018277708,-0.07982358,0.023554957,0.029264508,0.20033489,0.009685575,-0.0105969915,-0.086416714,-0.037979472,-0.011462993,-0.1634705,-0.038730804,-0.020502925,0.030070467,-0.06294366,-0.2011811,0.1382306,0.046720043,0.07387807,-0.09032483,-0.12463383,-0.025269577,-0.044199415,-0.097481646,-0.025259318,-0.058683332,-0.063768014,-0.17186686,-0.06777383,0.019106768,-0.022040723,-0.036204074,0.017085917
being,0.11786255,-0.020251356,0.1492406,-0.08923597,0.040952124,-0.14425097,0.078663215,0.05425728,-0.12417499,0.04345564,-0.028541168,-0.16594514,-0.08385902,0.105293505,-0.014486211,-0.0045588827,0.09162876,-0.012710598,-0.034683947,-0.18682107,0.1145868,0.14069603,0.12848158,0.04852923,0.09332189,-0.012301753,-0.1150836,-0.12206608,-0.111888684,-0.015092589,-0.0125961,0.15775049,-0.029077535,-0.12838103,-0.11455893,0.13890709,-0.13471983,-0.057567317,-0.0174256,-0.15260349,0.02803348,-0.049525,0.05127053,0.13078217,0.05308433,0.26379377,-0.18312629,-0.16465478,0.05591091,-0.0064066104,0.01977683,-0.16896263,0.05586028,-0.1174818,0.08313243,-0.058094952,-0.025647923,-0.023740577,-0.07424327,-0.030945927,-0.059892602,-0.0200801,-0.10994077,-0.043959755,-0.019654142,0.13015944,-0.12895417,-0.035551034,0.107532784,-0.089066036,-0.046953477,-0.006987033,0.027139938,0.17384434,0.055881687,0.016120594,0.14595234,-0.12997535,0.10732164,0.10989975,0.134301,0.07008186,-0.17799777,0.045655865,-0.008467218,-0.004515317,0.085401796,-0.1845305,0.087065555,0.057888694,0.10382364,0.072064444,-0.02910022,-0.07737902,0.025084637,0.09376401,0.13497381,-0.06768793,0.13679555,-0.12969886
more,-0.1448275,-0.08402764,0.078658156,0.008250109,0.08156873,-0.1557079,0.15363507,0.0464803,0.053854153,-0.12307745,-0.033833127,-0.09355313,-0.14318554,0.027222771,0.25556645,0.087486796,-0.17542343,0.02604715,-0.04534984,0.1777935,-0.033562735,0.13879675,-0.044148307,-0.22019269,-0.033092547,0.053978384,-0.088775046,-0.11554724,0.04041366,-0.08847469,0.08382318,0.1296032,0.14374809,0.08350877,-0.0124315,0.0877632,-0.07298576,0.05959528,-0.017604116,-0.08469675,0.055350948,0.02215341,-0.013018211,-0.11572919,0.11229544,-0.015547295,-0.023133453,0.110813454,0.05386478,-0.08065468,-0.020387113,0.068977505,0.09480184,0.048027262,-0.11331302,0.13203534,-0.031723015,-0.019419465,0.10571008,0.063371815,0.0598119,0.14629778,-0.18914537,-0.043494623,-0.019463344,-0.056506872,0.07817896,0.011576826,-0.27077127,0.07259782,0.085695624,-0.12031581,0.005713488,0.08653585,-0.0375445,0.06854708,0.19416341,0.019052552,-0.13948226,0.1303881,0.08140517,0.074981935,0.05329422,0.013511113,-0.11561073,0.106536165,0.15213397,0.06150397,-0.09750029,-0.17154483,0.01726374,-0.047192756,0.015267063,0.049893193,-0.16199273,0.08020186,-0.10045428,-0.052066367,0.040254023,-0.076452315
power,0.044842165,-0.02215566,0.10869282,-0.023023335,-0.008528588,0.122677095,-0.13418281,0.19436932,0.07947125,-0.02923481,-0.06263593,0.04003164,-0.08397177,-0.018814173,0.04699281,-0.019674351,-0.03832986,-0.28037107,0.09724576,0.005678291,-0.027151797,0.028268587,0.12642182,-0.011854013,-0.048132062,0.020822033,-0.015118815,-0.08901054,-0.03740742,0.056438074,-0.21483216,0.100173004,0.107881606,-0.17391686,0.048569597,-0.14208263,-0.23075414,-0.16717686,-0.023081232,-0.10140531,-0.06203131,0.18769799,-0.030747876,-0.103163764,0.075131804,0.04681402,-0.10991481,-0.048381153,0.18413143,-0.062188268,-0.04988593,0.061424416,0.06954536,0.026759908,0.021090701,-0.15548362,0.040958937,0.028794156,0.10084959,-0.15757208,-0.13859423,0.0944497,-0.07033211,0.09482036,0.029435853,-0.10387185,-0.018569952,-0.045804713,-0.18388338,-0.084972374,-0.02407569,0.13181002,-0.07422541,-0.0012068424,-0.112486824,-0.10159419,0.12699218,-0.057506993,-0.13321574,0.003150837,0.012607874,0.024383811,-0.038063787,0.009718134,-0.16169655,-0.053508043,-0.016967421,-0.00092600577,0.08764551,0.15282468,0.04374046,-0.074012235,-0.11634535,-0.08618237,-0.17448024,0.027746659,-0.046059858,0.10714948,-0.04088143,0.23080124
him,0.075972304,0.08283659,0.09287607,0.06309661,-0.034406662,-0.0550275,-0.16213438,0.20773433,0.10054662,0.02695778,0.024356255,0.0130450325,0.10731795,-0.028486762,0.051738743,-0.05975011,-0.097723044,-0.24373735,0.082215905,0.0055103726,-0.006583306,0.070167504,0.023275707,-0.09550312,-0.13211204,0.19443189,0.010754166,-0.021973273,0.08410762,0.009633448,-0.13447523,0.05614158,0.12791614,0.0016494391,-0.046645023,-0.10716401,-0.012096263,-0.038080417,-0.13179119,-0.020642996,0.0164107,0.18832648,0.13261336,-0.019785995,-0.087332904,-0.20720494,0.00044527883,-0.07158824,0.05276822,-0.019540643,-0.07001707,0.087397225,-0.16301167,-0.00046200005,-0.030175643,-0.15393078,-0.04742138,0.049699374,0.00014519214,-0.048779707,-0.071770415,0.07327752,0.055933613,0.117080785,-0.08513184,-0.11867706,0.09898429,-0.067915685,-0.19074687,0.13771038,-0.12808235,0.047020998,-0.062551945,-0.13513519,0.06371612,-0.00011703758,-0.00355467,-0.09458316,-0.121459745,0.10024745,-0.07504766,0.11867537,-0.086499184,-0.14772558,-0.12028715,-0.0912666,-0.1416406,0.14241552,0.00077136944,0.24206834,0.0014334708,-0.011419176,-0.12970595,-0.15469128,-0.06441267,-0.14660908,-0.041097336,0.06931325,-0.10527162,0.10757113
than,0.22735271,-0.13409403,-0.106088705,-0.054002024,0.034974806,-0.102535196,0.19688578,0.10363395,0.06921268,-0.13882895,-0.053829055,-0.061177745,-0.13424793,-0.002518703,0.10368268,0.0458852,-0.2311994,-0.055721406,0.012478185,0.08081311,0.12677275,-0.095704,-0.010851627,-0.16389352,-0.10466784,0.0529987,-0.0535594,-0.0294764,0.0082994,0.10219774,0.0947327,-0.11704802,0.0047163977,0.08629402,0.2280183,0.0830434,-0.12188966,0.017487587,-0.023498047,0.08458051,-0.06548527,-0.075452924,-0.043686803,-0.13814083,0.14178248,-0.009801486,-0.06634066,-0.17260845,-0.009204161,-0.07834377,0.044029877,0.005065533,0.10112104,-0.053570997,0.100023724,-0.1000372,0.06474949,0.06343255,-0.1186292,0.07744051,-0.08849709,-0.08702904,-0.046625175,-0.16338529,-0.02808891,-0.11182664,0.23408124,-0.050468616,-0.096436895,-0.13312961,-0.06302997,-0.02796982,0.014433194,0.056573052,0.019514842,0.03742777,0.104869105,0.072505035,-0.18486954,0.13740791,-0.07958202,0.1630695,0.06178549,-0.006164087,-0.18740954,0.06442378,-0.081387036,-0.0708573,-0.09121998,-0.06950939,0.017186267,0.024834424,-0.03168704,-0.09851927,-0.067783475,0.0077484488,-0.06138505,-0.18290058,0.08092671,0.030409211
were,0.09540737,0.04850607,0.034115497,0.0758837,0.085356094,-0.08975222,0.03238294,0.028578589,-0.23260053,-0.13981757,0.17000371,-0.21759373,0.08500776,0.27095017,0.029516857,-0.03595807,0.015903303,-0.068579234,0.010958779,0.0124295,0.013059837,-0.15578532,-0.1308838,0.02852218,0.04423553,-0.058118477,-0.03343591,0.048968013,0.15491433,-0.12895028,0.059197497,0.07629794,-0.07922853,0.052087758,0.03632142,0.014492997,0.011229618,0.056042325,0.027829802,-0.090800606,0.15309611,-0.010808716,0.10764615,0.15520331,-0.117827006,0.16923009,-0.2273686,0.063534684,0.068597645,0.07504483,0.0020917198,-0.029734831,0.0289512,-0.051096328,0.16034076,-0.046220567,-0.04624998,0.05106665,-0.16304968,-0.07436602,-0.090761475,0.08514365,-0.017810483,0.036251053,-0.003076094,0.13094495,0.06920359,-0.022118885,0.13919279,-0.04244751,-0.00026551916,-0.0139146475,0.09813628,-0.07024976,0.27513155,0.0040972894,0.1053444,0.016090004,0.086666964,0.061950672,0.008761592,-0.031729978,-0.10588795,-0.1525799,0.043524705,-0.15445542,0.037673403,-0.096371554,0.04010384,0.13695952,0.02175076,0.20171256,-0.10625592,0.036506943,-0.070278995,0.00834314,-0.05707632,-0.053207792,0.18080474,0.041699182
same,0.021042427,-0.0129886,-0.06750882,0.17679203,0.12379844,0.13057825,-0.082605414,-0.033262204,-0.102637574,-0.11896115,-0.097235754,-0.13098532,0.109493576,0.035699688,0.020714777,0.031495295,0.05663416,0.006438948,-0.047144033,0.037230592,-0.19736865,-0.11186951,0.17909168,-0.08820293,0.04222923,-0.14250991,-0.15426596,0.09122849,0.02550486,0.11124127,-0.087348096,0.10712783,0.077331126,-0.029553799,0.045846097,-0.03740646,0.037850756,-0.09539941,0.1027704,0.0008721746,-0.07945312,0.03980485,0.08383197,0.029621676,0.120049216,0.10246919,0.04198819,0.07252169,-0.22890721,-0.023991982,-0.027370656,0.09370044,0.17881444,-0.043833148,-0.100720674,-0.036279593,-0.22987585,0.09741892,-0.03362836,0.08365635,0.019895718,0.06961658,0.16607665,0.18205942,-0.06955625,0.005486873,-0.10856785,0.10162287,-0.09272013,0.11213483,-0.026981551,-0.01972685,-0.028719964,-0.21544588,0.0040438254,-0.12827481,-0.10039937,-0.016610105,0.06982964,-0.023567904,-0.10010111,-0.13946158,-0.06739435,0.2404249,-0.03670617,0.10769309,0.16790621,0.0465515,0.028358487,-0.016188385,0.054278634,0.017749388,0.017521644,0.16580105,0.12234657,-0.06284613,-0.09661163,0.15450336,-0.033476073,0.0047394736
has,0.062449742,-0.11048947,0.1890362,-0.07095939,0.07050514,0.045850597,0.025829747,-0.05406229,-0.08688077,0.116662115,-0.07862165,-0.031740446,0.028271275,0.07097536,0.07995923,-0.018423833,0.010029904,-0.027512753,-0.06974602,-0.05542666,-0.007034448,0.12470361,-0.11594718,0.050661903,-0.17414123,-0.0061299126,-0.017741209,-0.16730213,-0.21131992,-0.13739052,0.020173816,0.11019817,-0.013441952,-0.10592362,-0.023983262,0.0843009,-0.15452392,0.12140157,-0.038871627,0.033951994,0.09840506,-0.14977093,0.014966886,0.02628285,-0.02147312,0.108424544,-0.21301436,-0.13138455,0.026018297,0.021813035,-0.0768859,-0.13148805,0.01618352,-0.11324227,-0.048167862,-0.040933546,-0.03658582,0.10953333,-0.14394468,-0.029568503,0.022965444,0.034116246,-0.026901409,-0.13896482,-0.0994141,-0.121969216,0.023551343,-0.06556482,0.076211266,0.015419879,0.033924233,0.033023063,-0.06732865,0.081810154,0.115362644,0.035446506,0.03727541,0.09961693,0.05493929,0.08714775,0.11454355,0.17575768,-0.2951631,-0.02232732,-0.28629997,0.098193325,-0.036556553,0.020974772,0.12139537,0.1008752,0.04449795,-0.06366982,0.05690045,0.017424274,-0.23418136,-0.020181082,0.0796656,-0.17374568,-0.020244533,-0.1128514
these,-0.22930087,0.040097103,-0.06870556,-0.050011225,-0.09400116,-0.03701018,-0.044894446,0.05421026,0.037815206,-0.01247141,-0.026062835,-0.1366734,-0.041261055,0.017321538,0.1176813,-0.05465286,-0.046320885,0.093096696,0.106032394,-0.06407811,0.00039596364,0.048429746,-0.20874774,0.19608809,0.09733381,0.0072196266,0.07520401,0.021051891,-0.06588775,0.059058867,0.029621247,-0.05131483,-0.07953202,0.024480347,-0.09310944,0.17113487,0.19904289,-0.003257116,0.08701769,-0.16640511,-0.12714842,-0.060725298,0.0056216405,0.023719426,-0.102226414,-0.054458275,0.012287349,0.16244507,-0.08637452,0.09264673,0.2285197,0.052839406,-0.038723435,-0.06552749,0.090747446,0.12258007,0.02200795,-0.046952985,-0.0600644,0.06263649,0.07847571,0.04527804,-0.10295908,-0.068283565,0.025511552,0.20753162,0.0061909924,0.12944828,0.045136474,0.0851967,0.07211956,-0.10686165,0.04495044,-0.11471592,-0.014203137,0.012394739,0.01697864,0.09390433,-0.02523919,-0.0030895933,-0.0059899846,-0.01533739,0.021503707,0.11397914,0.21660447,0.110388085,0.1082006,0.15561448,0.0007201708,-0.12634362,0.12628947,0.028911058,0.043112114,0.2235205,0.32355523,0.10750691,-0.019999107,-0.07860579,-0.06503173,-0.008828595
idea,0.091832064,0.07324132,-0.021285826,-0.09745529,-0.057528887,0.100168675,0.060987335,0.025289007,-0.053371225,0.0588782,-0.0701571,0.0068927393,-0.115993336,0.047995556,-0.079944074,-0.055711497,-0.10037465,-0.100719236,-0.062377088,-0.0510105,0.09233443,0.14107473,0.068612106,-0.057154085,0.034202058,-0.021111658,-0.022911692,-0.08020915,-0.26130387,0.027021123,-0.24976316,0.16554603,0.14262396,-0.0041115372,0.10638357,0.049007215,-0.089038484,-0.114961945,-0.053823646,-0.06574182,-0.24325278,-0.1258027,-0.0181482,-0.07397004,0.2235019,0.03010107,0.12568963,-0.0142240515,0.033516813,0.021531776,-0.003055655,0.086263195,0.05487795,-0.14759506,0.012284218,-0.063405305,-0.043896213,0.08994696,0.0839117,-0.05142963,0.14683127,-0.15305279,-0.09565335,-0.07278522,-0.059067085,-0.07836695,0.0043045543,0.14959846,-0.04432987,0.07794023,0.07133412,0.067772254,-0.058820263,0.15203977,-0.1212442,0.035467483,0.060056366,-0.06780571,-0.054050807,0.14022288,0.008230734,0.07229816,-0.1547418,0.13697423,0.02052419,0.15307511,0.12200365,0.00083316374,0.12616113,0.021621399,0.22283311,-0.074267946,0.08292337,-0.16281025,-0.08500805,0.0327129,0.07626284,-0.13813816,-0.1265688,-0.017958514
god,0.026946638,0.16018744,-0.019870292,0.06974869,0.042404797,0.030154921,-0.10961763,0.19408035,0.07097359,0.04188939,0.1638695,0.106035344,0.0017048771,0.049559005,-0.0941714,-0.14043267,-0.0035136766,-0.16963731,0.08039753,-0.12371943,0.018089013,-0.0011538342,0.09010012,-0.07152131,-0.087018855,0.07483057,0.05276827,0.01154726,0.059338115,-0.112805165,-0.040129416,0.021235507,0.14311019,-0.13570857,-0.044085816,-0.27252266,-0.015347929,0.012279855,0.003042178,-0.07944613,0.18630514,0.0039439965,0.08595608,0.0066558705,-0.10625484,-0.22679576,-0.022753939,0.009128966,0.11470235,0.03562235,-0.121336184,0.13854006,-0.083303355,0.10048255,-0.046775192,-0.1978756,-0.014946958,0.016340684,-0.059967753,0.02824195,0.15450299,0.110639036,0.08965704,0.12964848,-0.056843467,-0.14322387,0.18895602,0.06547667,-0.20095788,0.06603524,-0.09736392,0.047955927,0.0006860085,-0.16581954,0.06417622,-0.15341678,-0.034311455,0.027518313,-0.06655888,-0.1357243,-0.05771183,-0.026043972,-0.12332529,-0.093595326,-0.08337235,-0.08285996,0.05739604,0.1111137,-0.0311385,0.1073141,-0.06759935,-0.077778645,-0.022530876,-0.016972719,-0.02928994,-0.09411461,-0.05891128,0.076402776,-0.11496477,0.16693625
who,-0.04722689,0.009716356,-0.13037519,-0.038586,0.06827322,-0.007001589,-0.21323524,0.18474229,0.030797994,-0.12650713,0.1400921,-0.11708873,-0.08178027,-0.08890603,0.05096105,-0.16235997,-0.11612425,-0.19168591,0.21537457,0.13121504,-0.11914534,-0.074885525,0.06293951,-0.021847192,-0.16631824,0.02854063,0.02521874,-0.023775024,0.098690465,0.067165904,-0.01725275,-0.14349152,0.17162889,0.047450043,-0.046982307,-0.12462027,-0.12088151,0.06255786,0.03524827,0.09261746,0.021946404,0.022109289,-0.01628235,-0.07295207,0.026556304,-0.015690867,0.0041883164,-0.010745273,0.09210746,0.05817111,0.10203586,0.057787664,0.08114095,0.12919916,0.023387322,0.05146536,-0.090395056,0.03506299,0.1661757,-0.04872416,0.024727834,0.06813432,-0.008040335,0.11577017,-0.018332765,-0.012259339,0.20980404,-0.040074684,-0.24108355,0.11335931,0.027726237,-0.10838128,0.103597425,-0.05527676,-0.038196646,-0.049559146,-0.08912536,-0.048389357,-0.09562923,0.04517161,-0.1159085,0.07344505,-0.0022050375,-0.12365243,-0.0041360166,-0.19603272,-0.15178302,0.084407076,0.040383436,-0.041233923,0.026668793,-0.09433964,-0.12910202,0.036642294,-0.17857134,-0.11521343,0.07009898,-0.041667745,-0.16676378,0.142968
without,0.057732094,-0.1905151,-0.053186335,-0.043806486,-0.08784836,-0.03366275,0.010232664,-0.10178486,-0.06518949,0.032940734,-0.074304305,-0.07081187,-0.12548138,-0.19101581,0.07411803,0.13256066,-0.04785449,-0.265604,-0.1450357,0.10919361,0.0015589118,0.076569125,0.090794384,-0.08783641,0.08664315,-0.06094546,-0.13329245,-0.088531196,0.012226442,0.18238091,-0.064344585,0.0053862217,0.009138495,-0.08106643,0.03197819,0.15748446,-0.07115004,0.0027231786,-0.09552448,-0.023633797,-0.25122783,0.16646379,0.16853178,0.1795516,0.13819858,0.047514625,0.11491255,-0.055864237,-0.13714175,0.108941495,0.034370843,-0.057497803,0.08576268,-0.04363673,-0.022185104,0.012950417,0.12344046,0.19232258,-0.04088208,-0.062472094,-0.21107565,0.100760505,-0.06495052,-0.019156981,-0.12950502,0.051330913,-0.18151884,0.04284475,0.02022096,0.06580646,-0.067779295,0.00633026,-0.014850221,0.034711853,0.071827166,-0.05270368,-0.04393363,-0.068056434,-0.09903948,0.08555118,-0.00023725131,-0.024571953,0.065375276,0.0112513825,0.072250344,0.1170758,-0.16166556,0.029114924,-0.066442184,-0.027834753,0.0013953208,0.017794404,-0.2219818,-0.055436384,-0.013737365,0.06317757,0.1431654,-0.0919327,0.028297866,-0.07239245
would,0.001817729,-0.062339816,0.032576676,0.036460415,0.025423186,-0.10281163,0.04887093,-0.10089261,0.10229679,-0.23127435,0.06920013,-0.10431746,-0.055371873,0.04871416,0.013616539,0.018577427,-0.015561351,-0.07413545,-0.15325804,0.32016948,-0.1423899,-0.052342992,-0.061527424,0.04863487,-0.16507795,0.07968534,-0.0763893,-0.02898449,0.11592677,-0.07788525,-0.16465002,0.0792913,-0.1010858,0.11280445,0.01663455,0.07932852,0.0075788214,-0.08204793,-0.025305508,-0.13658366,-0.03281183,-0.016835695,0.089424856,0.06785107,0.07904698,0.06678701,-0.11785724,-0.1345183,0.113618396,-0.026416508,-0.07053641,-0.045526646,0.049316484,-0.09203399,-0.0097028315,0.007489097,0.063035294,-0.02881458,-0.066573724,-0.22960965,-0.011018326,-0.09901073,-0.0055195168,0.06428594,-0.026968608,-0.05785543,0.042469393,0.12685032,0.033274893,0.11019826,0.14950274,-0.13545698,0.12872484,0.16787693,0.21615131,0.111324675,-0.07048616,-0.105846025,-0.0931984,0.06148648,0.106637314,0.075458445,0.0018355938,-0.23395339,-0.023264308,-0.11926531,0.0401311,0.018204706,-0.0044345157,0.041341204,0.14689782,0.1509355,0.016511444,0.041366585,-0.04159686,0.15856631,-0.060041163,-0.08639871,-0.15300168,-0.06243836
another,0.051871628,0.050351117,-0.0030889057,0.058283187,0.022665238,-0.015992004,-0.142622,0.09986935,-0.12956223,-0.028369049,0.024836978,-0.18845886,0.08790185,-0.06126821,0.060129076,0.068457834,-0.051265806,-0.11280309,0.036448263,-0.11257578,-0.19602163,0.13367575,0.045800846,-0.014770524,-0.0466408,0.09007952,-0.041783575,-0.055878688,-0.06799343,0.101344116,-0.16952202,0.1667946,0.025466211,-0.21730292,0.043684985,0.120726734,0.05677976,-0.26416335,-0.111551285,-0.02488066,0.031230304,0.09970196,-0.0144478865,-0.040348638,0.27093032,0.041083887,-0.042588104,-0.04569388,-0.026850276,0.010105626,-0.10949169,0.0693628,-0.045045834,0.1267641,0.10044575,-0.0140110515,-0.22715825,-0.04061561,-0.035016563,0.18024008,0.005749787,0.10803404,0.038263135,-0.017802073,-0.050596315,0.05164461,0.014848265,-0.033170227,-0.18922885,0.22625446,0.033513352,-0.0015475174,-0.042611543,-0.056881007,-0.26294056,0.17097032,-0.019688511,-0.0726068,0.05101144,-0.012940945,-0.015003792,0.013931885,-0.12310967,-0.03801741,0.03722506,0.06978907,-0.045485914,0.06511309,-0.009205534,-0.065430894,-0.036200307,-0.005799219,0.12067851,0.12013305,-0.0017028969,-0.17550965,0.013498782,0.121377505,-0.08137679,-0.02061806
had,0.07193014,-0.007744397,0.06733549,0.010106605,0.11947115,0.035047777,0.003786733,-0.0154129835,-0.095016584,-0.052236114,0.05836877,-0.15671945,0.0018631498,0.15086472,0.051434018,-0.023668654,-0.0919037,-0.11998634,-0.1280645,0.08465937,-0.03358842,-0.032424722,-0.19159818,0.016335834,-0.14055152,-0.06928968,-0.048637763,-0.11030589,-0.02822422,-0.18852377,-0.03524228,0.020172901,0.0017641388,-0.004336327,0.052967567,0.027600912,-0.083051786,0.21086012,0.015998134,-0.000988258,0.10196961,-0.050950356,-0.027169263,0.1816102,-0.077891886,0.079256415,-0.24996577,0.017873833,0.10819471,0.109285295,-0.05364981,-0.06752141,0.085107565,-0.08615512,0.026899636,0.016752623,0.0007190007,0.17508334,-0.1739446,-0.12367483,-0.07640419,0.06684373,-0.044340767,-0.051297106,-0.078599945,-0.08663351,0.15019256,-0.06275123,0.123405226,0.050911844,0.031654827,-0.02483428,-0.044512685,-0.044737924,0.23025405,0.01825639,0.03409173,0.023991428,0.012714109,0.063417956,-0.006117919,0.12563024,-0.16555166,-0.21365547,-0.24977012,-0.015061774,0.006678353,0.01167183,0.09660865,0.18368624,0.014409151,0.0884173,-0.020772211,0.050791956,-0.25152278,-0.023053952,-0.06454487,-0.16991122,0.06925254,0.028673887
some,-0.051027175,-0.119067855,0.041049927,0.113045566,0.015888408,-0.16181938,0.007472254,0.1463288,-0.09947327,-0.21637751,-0.0034334958,-0.028439399,-0.029740557,-0.047421396,0.19638175,-0.059207447,-0.004863983,-0.17449097,-0.057623096,-0.037253447,-0.16500258,0.0049340543,-0.14148419,0.1310328,0.040487003,-0.011566534,-0.05206813,0.11050968,-0.036746792,0.14896178,-0.0956495,-0.117110096,-0.08275253,-0.02032392,-0.04943562,0.13484731,0.043302547,-0.0636783,-0.012510505,-0.019170191,-0.0968198,-0.07504058,-0.09199791,-0.057440005,0.12899575,-0.07329458,0.065814,0.14119115,-0.07242364,0.09012653,0.123094164,-0.03971911,-0.011508495,0.031184465,-0.0025975923,-0.009841339,-0.069210865,-0.17665572,-0.11843085,0.019089947,-0.02125057,0.02431936,-0.09833412,0.052613318,-0.02710507,0.2101502,-0.043644115,0.022604235,-0.1278536,-0.02859889,0.02084792,0.013442232,0.10037714,-0.21412003,0.03864879,-0.005830193,-0.12086684,0.088160306,-0.090104826,0.0024237733,0.12217111,-0.08046219,-0.12361333,0.10685134,0.14336246,0.15244952,-0.20033027,-0.08058203,-0.09360784,-0.13121156,-0.054341786,0.16104853,0.16428159,0.11322892,0.17115182,-0.08281082,-0.07128063,-0.12733158,0.030301431,-0.0906719
make,0.08738504,0.022897411,-0.20232879,-0.015538486,0.07060457,-0.20523125,-0.042480923,0.11096788,-0.096166864,-0.053826604,-0.020699473,-0.036832597,0.011294936,-0.034116022,0.14218569,0.03801567,-0.1057904,-0.23086122,0.014727968,-0.1413737,-0.08383269,0.061119433,-0.030919774,-0.055635408,0.015624044,0.010130688,-0.07732235,-0.020684019,-0.1756474,0.12840822,-0.034473907,-0.048470467,0.06264924,0.019675316,0.030851437,0.060562767,-0.06141169,0.10223708,-0.03136414,0.20525889,-0.013516756,0.058470886,0.0008276927,0.25909862,0.14063577,0.1752466,0.09741098,-0.018062778,-0.1070902,0.10858284,-0.037853938,-0.008072531,0.03491323,0.05165353,0.04499573,0.052221354,-0.026450094,0.042321775,0.041012466,0.038108114,-0.15419225,0.22401357,-0.004969176,-0.11207258,-0.08250728,-0.053004034,-0.0605344,0.027921941,-0.07066431,-0.03876939,0.14909092,0.18404613,0.18157747,0.16991653,0.03902011,0.0872716,-0.012291725,-0.015811358,0.033179242,0.076106645,-0.11818127,0.18552755,0.088383056,0.055375997,0.08849309,0.081954986,-0.16599974,0.046191853,0.062914595,-0.037861664,0.08930386,0.19155344,-0.13392821,-0.11533732,-0.08123461,-0.0035471711,0.107725084,-0.10309298,0.04506384,-0.043957952
only,0.0174921,0.033532526,0.107121326,-0.18708323,0.106863424,0.10135191,-0.11709441,0.033667434,0.046388075,0.04459056,0.030168138,-0.03367728,-0.14338127,-0.005753096,0.14624915,-0.07570015,0.060881205,0.12364312,0.100014545,-0.24952246,0.02308857,-0.015794035,0.0789059,0.011139188,-0.16904552,-0.018836863,-0.018731423,-0.17150043,-0.0076603605,0.15681186,-0.05791279,-0.200107,0.07254399,-0.14407288,0.13810977,0.0033620687,0.09483784,0.036394276,0.10869087,-0.026841333,0.018459413,-0.056494474,0.124657094,-0.003971925,0.028787218,-0.07831981,-0.12198069,-0.055459987,0.15674247,0.014221601,0.017198242,-0.03730712,0.087904386,-0.03698678,0.20738326,0.16646375,0.115720764,-0.008813074,0.074419275,0.035857294,-0.19525461,0.066481136,-0.14531092,0.04753334,-0.036403622,0.06767536,-0.08071711,0.086233884,-0.12319752,0.059304852,-0.00230525,-0.12040662,0.106762566,0.17216523,-0.056223817,0.0026034159,0.09651351,0.03318917,-0.18669122,-0.17664199,-0.07422479,0.013263729,0.0006327228,0.117019415,0.11828848,0.10182251,-0.08061586,0.027500588,0.0148134325,-0.1408826,0.016247626,-0.094221994,-0.10986278,0.0073055183,-0.012512622,0.124610685,0.13692598,0.087783724,-0.15449078,0.004283292
us,-0.04755349,0.21827938,-0.006377684,0.109967194,-0.051644128,-0.10547601,0.0747874,0.19144526,0.1482304,0.0033892174,-0.04551875,-0.05249308,-0.013859179,-0.04749104,0.043111227,0.04048585,-0.028264727,-0.05434764,0.13329205,-0.20981349,0.06682019,0.1517278,-0.05486953,-0.061939653,-0.040701352,0.2713392,0.04555161,-0.058440138,-0.028843695,0.09144796,0.05216813,-0.023986815,0.04669161,0.027454684,-0.25700772,0.12824704,0.15925768,0.015758775,-0.084629275,-0.06793428,-0.12832157,0.123769715,0.06031215,-0.047913607,-0.073291786,-0.13697867,0.14111833,-0.0397896,0.14827318,0.08103444,0.006672581,0.051984504,-0.21232733,-0.01544218,-0.13252205,-0.013058495,-0.063634746,-0.08834566,-0.07362978,0.03772807,-0.094045185,0.009995285,-0.20016569,-0.013103506,-0.004686228,-0.05878216,-0.05087635,0.036774635,-0.058477923,0.14037476,-0.05847174,-0.17518917,-0.033083174,-0.020810377,-0.069378935,0.010620434,0.012840885,-0.051689114,-0.008119791,0.13165706,-0.07530909,0.10736683,-0.01264998,-0.0285805,0.16118933,-0.042367984,-0.1500041,0.07077575,-0.014412963,0.0092178,0.076307796,-0.09789924,0.097650535,-0.18119662,0.23714279,-0.041935112,-0.016811086,-0.057177246,-0.0038152528,0.05643595
nature,-0.013092623,0.12422291,0.044740252,-0.057960782,0.12127402,-0.0054934397,-0.057959065,0.15507519,0.1390856,-0.05465028,0.10009379,0.16685589,-0.29979634,0.076508276,0.0799291,-0.054502156,0.18169406,-0.0004084289,0.09515196,-0.16028014,0.051214598,0.110023595,0.1101344,0.05012792,0.05096771,0.026791241,0.016387481,-0.014127294,-0.13235468,-0.033575732,-0.1658327,0.0051963446,0.0319912,-0.067720726,-0.13222268,-0.13663922,-0.0022218763,-0.09363089,0.10000716,-0.072841674,-0.093846805,0.05113239,0.117219165,-0.0720064,0.008280815,-0.00675133,-0.18089816,0.021833947,0.29782525,0.021347353,-0.08542326,0.100557886,0.19194296,-0.041072607,0.04883957,-0.15850802,0.0110639855,-0.07373622,0.06590085,-0.09604734,-0.046734646,0.053126674,0.028650634,-0.001706348,-0.0011434067,-0.01568452,0.019824436,-0.015004538,-0.071396835,-0.01868153,-0.033793785,-0.044141557,-0.005555665,-0.038690314,-0.10267145,-0.031118574,0.10623399,-0.062646426,-0.019937867,-0.25065833,0.0020297444,0.050713003,-0.1451494,0.11896597,0.086560234,0.084902845,0.12999861,-0.18960422,0.011670022,0.096574716,0.078874916,-0.01645732,-0.14043458,-0.039678864,-0.10114856,0.04547457,-0.124359235,-0.05518582,0.15141527,-0.015758904
things,-0.049902953,0.103258885,-0.07781602,-0.16718382,0.06897783,-0.08703017,0.040351175,0.069417775,-0.008643367,-0.05807815,-0.0054926756,-0.14286074,-0.14924233,-0.053045597,0.11862241,-0.13722736,-0.023500783,0.02816174,0.24141562,0.016670275,0.088306524,0.069573715,-0.04744154,0.21865323,0.07211643,0.039375298,0.09145239,0.0412323,-0.030546535,0.022461273,0.017745687,-0.041724302,0.008389476,0.044054423,-0.09239875,0.16905022,0.07548273,0.07534698,0.06516057,-0.14292008,-0.33534396,0.06942948,0.06767951,-0.112425484,-0.09374216,-0.063715264,-0.0159355,0.060718972,0.015381935,0.059765246,0.1680621,-0.02395585,0.03388001,-0.14040434,0.063164815,0.031152993,-0.076168545,-0.07557236,0.018386638,-0.04034402,-0.07135255,-0.006918968,-0.09966193,-0.032401126,0.12020975,0.1482822,-0.031815864,0.17204559,0.10537467,0.0068771527,0.09329344,-0.026582273,0.06856316,0.104300484,-0.062911324,0.007601654,0.06647117,0.08334769,-0.12507659,0.0032964116,-0.06010489,0.07132191,-0.050637733,0.08999715,0.13891186,0.09051532,0.090377696,0.13496992,0.11075323,-0.064612165,0.31688946,0.04624899,-0.028391596,-0.068271734,0.22373924,0.017883727,0.021179866,-0.10893732,0.010487781,-0.005690541
own,0.050287105,-0.027740883,0.09715682,-0.13750058,0.18843387,-0.108024634,-0.16087016,0.13382156,-0.024923343,0.123101294,-0.13709064,0.017420148,-0.08300499,-0.07440916,0.029298946,-0.00023121032,-0.0933456,-0.06511443,-0.064064264,0.14849922,0.05637163,0.037007816,0.035508607,0.050628018,0.07370618,0.006409942,-0.14399406,-0.0079493355,0.119251795,0.06932446,-0.056129117,-0.007810768,0.117994234,-0.14581908,-0.03579436,-0.01360643,-0.011955517,0.030120565,-0.13859934,0.09406734,-0.11100539,0.14420377,-0.025473455,0.0025848984,0.06302311,-0.052140165,-0.030529018,-0.09615125,0.21375693,0.047238518,-0.09163003,-0.04640648,0.005675345,0.11556645,0.02789437,0.029424407,0.13242769,-0.017247561,0.10250394,-0.1103628,-0.32487664,0.02352655,-0.0054397983,0.020860944,-0.029866423,0.039654534,0.10957938,-0.12197979,0.026749816,0.07629103,-0.20757407,-0.12877199,-0.07550871,0.086477466,-0.013338403,0.13291006,0.08016617,-0.08973995,-0.14493553,-0.0645543,0.034652006,0.026323326,0.06964102,-0.046497926,-0.09920254,0.0068478473,-0.21355401,0.13264908,0.08362494,0.23822166,0.0484311,0.0018826015,-0.17993164,-0.1252653,0.050972845,0.06572475,0.040680286,0.11365715,-0.09221095,-0.062240165
into,-0.118010715,0.19227259,-0.10574792,-0.08385634,0.070052296,-0.039084487,-0.21661288,-0.0032263352,-0.18646629,-0.070360236,0.024991522,0.062476154,0.1489991,-0.026586466,0.02352552,-0.021841416,0.10017815,-0.08822012,-0.15258487,0.07478704,-0.10081224,-0.035522126,-0.10588055,-0.09032367,-0.09620746,-0.1261378,-0.09105804,0.10502647,-0.08350229,0.034490295,0.015795829,-0.060476515,-0.20722428,-0.10492632,0.10285407,-0.009757609,-0.03793996,0.042435754,0.040039055,0.028126882,-0.03477184,-0.061817903,-0.13861741,0.17706616,0.18262628,0.0117226485,0.10728225,-0.077774584,-0.013778032,0.061913654,-0.048604533,-0.048827555,0.035157487,0.10690215,0.05044531,0.06314192,0.17950973,0.19395602,0.014950928,0.051350515,-0.009488896,0.040102337,-0.013150173,-0.10034396,-0.051797763,-0.062150635,0.07281265,-0.036144186,0.12497005,0.13762431,0.0485322,-0.06373134,-0.012458166,-0.058455437,0.07004536,0.073275395,-0.29936057,-0.097803414,-0.015118179,-0.10888029,-0.09322393,0.00963941,0.11164435,-0.062883586,-0.022136897,-0.11293591,-0.1476731,0.06523462,0.18491665,0.056901634,-0.025231414,-0.061568722,-0.117456935,-0.07919173,-0.067449704,-0.08727806,0.14610483,-0.1998573,-0.059200354,-0.056010485
its,-0.09405492,-0.0057163006,0.22787537,0.012311906,-0.21304937,0.0955202,-0.0410124,0.03346411,-0.021377888,0.14976677,-0.118374504,0.017402524,-0.013020054,0.0473611,0.17904943,0.10805113,0.10627324,0.04248568,-0.046961963,-0.14774,0.0750979,0.097690694,0.10433955,-0.027329195,0.03120242,0.0863631,-0.13997725,-0.045255307,0.007812764,0.13856171,-0.03537475,-0.045844957,-0.055812843,-0.10567563,-0.023352506,0.07034889,0.019023316,-0.119001366,-0.007248606,-0.08350887,-0.1495887,0.107813165,0.019945057,-0.13929415,-0.07139587,-0.0037661036,-0.18883434,0.010760038,0.024215855,0.00060011056,-0.084729075,-0.03563696,0.032895286,-0.04091144,0.07863068,0.019436013,0.16009827,0.08236841,-0.01034023,0.06404638,-0.15532674,-0.016028745,-0.19610733,-0.022671446,-0.031040082,0.036798477,-0.081933714,-0.101786986,0.025855023,0.03591404,-0.114729166,0.056222573,-0.22999181,-0.15048385,-0.064816035,-0.09767574,0.16393065,-0.004598826,-0.06172919,0.014337594,0.014003863,-0.1865209,0.097893216,0.2660624,0.019430988,-0.0016911122,-0.10922046,-0.04081188,0.0063988226,0.04029991,-0.090972826,-0.18355727,-0.18609715,-0.067630194,-0.025816314,0.09311151,0.067872435,0.049799368,0.15831357,0.1259724
should,0.06613317,-0.031327453,-0.010078732,0.055594407,-0.012296618,-0.07072177,0.046251513,-0.08413349,0.1046251,-0.18962516,0.065289356,-0.06556354,0.006979875,0.022094859,-0.0265898,0.114989154,0.036223814,-0.07322966,-0.1800227,0.31314388,-0.18041168,-0.07679457,0.015844148,-0.08194969,-0.112010695,0.06400511,-0.06997824,-0.034981303,0.13180585,-0.09813591,-0.1908475,0.13967255,-0.10175706,0.033424444,0.049995687,0.0075842575,-0.020322446,-0.17628324,-0.068155795,-0.12545167,0.0061612916,0.05725819,0.12620825,0.05430978,0.09004229,0.04716508,-0.07764578,-0.21598819,0.018699065,-0.026736217,-0.13951065,-0.02290449,0.05439092,-0.03542716,-0.0080918595,-0.028630486,0.028152796,-0.009774992,-0.06105946,-0.18153013,0.01571195,-0.09004455,0.096309245,0.085553505,0.02824736,-0.038907487,0.0867757,0.10943299,0.055386618,0.15434295,0.14184041,-0.031970583,0.12254887,0.095803685,0.13817827,0.0710091,-0.10133097,-0.14926451,-0.11390448,0.04462231,0.013311467,0.09342134,-0.020854302,-0.17782235,-0.11018006,-0.11589113,0.14209762,0.0233724,-0.022366308,0.08751992,0.14687665,0.14666077,-0.08811305,0.0061788643,0.06964959,0.13227102,-0.10721558,-0.037168626,-0.17790093,0.015553687
shall,0.003491737,0.02982171,0.012662899,0.029191267,-0.055131372,-0.13725388,-0.02162321,0.010436219,0.1539385,-0.11984229,0.019726906,0.08691268,0.071998194,-0.007867673,-0.05169579,0.031663455,0.09054704,-0.02604522,-0.111709505,0.1666483,-0.1186389,-0.12814008,-0.08847737,-0.03526536,-0.17411445,0.09895232,-0.009255898,-0.038944736,0.060640324,-0.11356274,-0.09099371,0.091153644,-0.12642097,-0.012734808,0.041010816,-0.10039312,0.035603605,-0.16829792,-0.11860433,-0.041293863,0.111553974,-0.0014845111,0.059834223,-0.028044647,0.037811015,-0.10092382,0.07941734,-0.14389203,0.052615765,-0.01097961,-0.123268716,-0.008804951,-0.06113527,0.11045687,-0.08430772,0.015220365,0.016995057,-0.102022395,-0.02749558,-0.11600664,0.14976567,-0.11667258,0.111736625,0.11422475,0.065919705,-0.05068207,0.15977469,0.052111834,0.024742011,0.12537667,0.09370882,-0.054704167,0.12622994,-0.028324222,0.10412757,0.094996355,-0.16400762,-0.06904359,-0.054646082,0.010830181,-0.0050878,0.11921737,-0.069770396,-0.12085307,-0.15976466,-0.16475904,0.13702425,0.14657526,-0.01214884,0.09680053,0.09158484,0.104949355,0.0030642713,0.017166568,0.2731422,0.11917805,-0.12226037,-0.044209916,-0.32293457,0.0025530206
yet,-0.1440931,-0.1424941,-0.07834562,-0.009479932,0.06722775,-0.034357853,-0.12756148,-0.000996414,0.12541585,0.015380554,0.045941066,-0.21110673,-0.22204559,0.056874607,-0.008690917,-0.06745457,-0.2610384,-0.14078127,0.10075376,0.03123783,0.0019072901,-0.0020445776,0.06504669,-0.0037524146,0.0076704086,0.035795726,-0.046348095,-0.12192715,0.105892316,-0.068546966,0.059239753,-0.06300904,0.1625625,0.19800708,0.0618918,0.2151402,0.05628168,0.06624833,0.05058507,-0.00748669,0.03797236,-0.103752434,0.09220142,0.014967274,-0.03908647,-0.02212124,-0.11496787,0.14126797,0.10910251,0.015407108,0.21841235,-0.037026633,0.1375886,-0.12589589,0.043293133,0.13731521,0.020232784,0.0065655475,0.020238763,-0.13597423,-0.042958803,0.05904118,0.0031818675,-0.041883506,-0.02106693,-0.09878314,-0.0062209778,0.18510377,-0.12953573,0.078530885,0.07488285,-0.04408885,0.0659727,0.2095181,0.1363548,0.029196775,0.10116975,0.0393639,-0.09269636,0.035881564,-0.11551887,-0.12175015,-0.07041425,-0.044362646,-0.089061946,0.067031436,-0.0009204325,-0.09921966,-0.030593514,-0.048921388,0.063675076,0.028471006,-0.091846846,0.1721252,0.092229396,0.15692946,0.002318941,-0.15680853,-0.11986662,-0.023294546
therefore,-0.14351614,-0.091696985,-0.1281163,0.08501308,0.08707336,0.098566994,-0.17715883,0.044581797,0.12804092,-0.144293,0.017559536,-0.10640717,-0.11065879,0.072626494,-0.037461877,-0.0015404281,-0.15027624,-0.03115785,0.23957372,-0.078428835,-0.0024322642,-0.1259239,0.094992794,-0.014405382,-0.0039802156,-0.035568386,0.028139403,-0.09918187,-0.01116569,0.061299827,0.10058666,0.0138390325,0.0030690413,0.06092846,0.10556691,-0.03553884,0.01574128,0.018768823,0.05138484,0.10385654,0.2932866,-0.001793575,-0.0025785752,0.11668381,-0.027619977,-0.009991754,-0.015525259,0.09962878,0.1029384,0.0003863471,0.10885788,-0.05388446,0.21770038,-0.0036768422,-0.0019558475,0.034538742,-0.12066764,-0.032377034,-0.03410075,-0.10197747,-0.11784381,0.10034464,0.10682707,-0.05816134,-0.058744974,-0.2695071,-0.057904225,0.18911234,-0.18107557,0.12616439,0.12709804,-0.031296007,0.023211546,0.054591008,0.01482419,-0.080896765,0.02105498,0.12332823,0.007955418,-0.004111595,-0.19574714,-0.08411273,-0.057090484,0.035116315,-0.16688105,-0.029239042,0.16018784,-0.14321186,0.09419497,0.11090014,0.02660171,0.016301889,-0.12324166,-0.0145987,0.086699985,0.103117034,-0.06182415,-0.015199059,-0.06491243,0.11888915
made,-0.03997649,0.14797801,-0.15545034,-0.043511763,0.04426956,0.11031096,-0.122222,0.10338274,0.01880917,-0.11501648,0.084363446,0.004272497,-0.031585947,0.052457184,0.14313838,-0.19846644,-0.0505828,-0.034062218,0.03901237,0.021313135,0.04148741,-0.011043982,-0.04585967,0.107628696,-0.034649998,-0.064786874,-0.061815273,0.008376455,-0.022231966,0.11682217,-0.24228999,-0.12613177,0.009404171,0.019061977,0.0850076,-0.15106666,-0.017119696,0.105012,0.22910932,-0.11861406,-0.00833752,0.021371003,0.036067653,0.10305793,-0.019567281,0.039622106,-0.10217871,0.12951557,0.08908899,0.11598891,-0.0075149834,-0.005748694,0.16101754,-0.12495061,0.15331793,0.002107026,0.13074647,0.20170408,0.02071939,-0.031834934,-0.0659535,0.1491143,-0.01233336,-0.09325235,-0.11714992,-0.07072993,0.113984495,0.21180826,-0.07982542,-0.011522212,0.07517272,0.032337245,0.1092634,-0.036723036,0.15181549,-0.037155893,-0.07810733,0.06252144,-0.12701616,-0.16122209,-0.06738103,0.113679886,0.114309385,0.01906278,0.117799535,-0.04122185,0.0059815617,-0.05405975,0.043758065,0.0122727975,0.06371212,0.022377877,-0.2075115,-0.004235487,-0.26165003,0.1290597,0.03053353,0.0030693938,-0.031723056,0.10032176
first,-0.10185291,0.159838,0.017718907,-0.04501168,0.14958127,0.02218117,-0.0014403653,0.11562444,0.011996307,-0.049416397,0.05880312,-0.029894661,0.008829709,0.17546284,-0.053528246,-0.11655518,-0.031972285,0.18945403,-0.1595558,-0.056067564,-0.03312194,-0.14549099,-0.027357625,0.032724563,-0.009471861,-0.19814931,0.055030216,-0.025253559,0.083667405,-0.031846,0.0032335252,0.04128132,0.010130728,-0.06686641,0.013657707,-0.094250016,0.14558597,0.12212562,0.11863489,-0.025169913,0.1534423,-0.06861227,0.0076693487,0.1428793,0.08918167,-0.10713086,-0.03406049,0.1418873,0.02421725,0.063523315,-0.0053105922,0.06548766,-0.01506119,-0.027005693,0.1266634,0.013812566,-0.14133877,0.11706443,-0.06988159,0.092018425,0.008940842,0.011575529,-0.012512646,0.13688642,-0.185248,0.03085938,0.18785496,0.098767936,-0.119844906,0.25448245,-0.09341596,-0.19158481,0.04224531,-0.23978662,0.18025415,-0.07436714,0.0042308164,-0.07573924,-0.092376836,-0.03568833,-0.023111533,-0.011129592,-0.10181191,0.06812336,0.07299788,-0.08209786,0.24452242,0.1138762,0.07227302,0.12188766,-0.090708524,0.013073015,0.035600815,0.12499439,0.047452953,0.058385994,0.018583715,0.071400054,0.08858869,0.013096769
